,0,1,2,3,4,5,6,7,8,9,10,11,12,13,14,15,16,17,18,19,20,21,22,23,24,25,26,27,28,29,30,31,32,33,34,35,36,37,38,39,40,41,42,43,44,45,46,47,48,49,50,51,52,53,54,55,56,57,58,59,60,61,62,63,64,65,66,67,68,69,70,71,72,73,74,75,76,77,78,79,80,81,82,83,84,85,86,87,88,89,90,91,92,93,94,95,96,97,98,99,100,101,102,103,104,105,106,107,108,109,110,111,112,113,114,115,116,117,118,119,120,121,122,123,124,125,126,127,128,129,130,131,132,133,134,135,136,137,138,139,140,141,142,143,144,145,146,147,148,149,150,151,152,153,154,155,156,157,158,159,160,161,162,163,164,165,166,167,168,169,170,171,172,173,174,175,176,177,178,179,180,181,182,183,184,185,186,187,188,189,190,191,192,193,194,195,196,197,198,199,200,201,202,203,204,205,206,207,208,209,210,211,212,213,214,215,216,217,218,219,220,221,222,223,224,225,226,227,228,229,230,231,232,233,234,235,236,237,238,239,240,241,242,243,244,245,246,247,248,249,250,251,252,253,254,255,256,257,258,259,260,261,262,263,264,265,266,267,268,269,270,271,272,273,274,275,276,277,278,279,280,281,282,283,284,285,286,287,288,289,290,291,292,293,294,295,296,297,298,299,300,301,302,303,304,305,306,307,308,309,310,311,312,313,314,315,316,317,318,319,320,321,322,323,324,325,326,327,328,329,330,331,332,333,334,335,336,337,338,339,340,341,342,343,344,345,346,347,348,349,350,351,352,353,354,355,356,357,358,359,360,361,362,363,364,365,366,367,368,369,370,371,372,373,374,375,376,377,378,379,380,381,382,383,384,385,386,387,388,389,390,391,392,393,394,395,396,397,398,399,400,401,402,403,404,405,406,407,408,409,410,411,412,413,414,415,416,417,418,419,420,421,422,423,424,425,426,427,428,429,430,431,432,433,434,435,436,437,438,439,440,441,442,443,444,445,446,447,448,449,450,451,452,453,454,455,456,457,458,459,460,461,462,463,464,465,466,467,468,469,470,471,472,473,474,475,476,477,478,479,480,481,482,483,484,485,486,487,488,489,490,491,492,493,494,495,496,497,498,499,500,501,502,503,504,505,506,507,508,509,510,511,512,513,514,515,516,517,518,519,520,521,522,523,524,525,526,527,528,529,530,531,532,533,534,535,536,537,538,539,540,541,542,543,544,545,546,547,548,549,550,551,552,553,554,555,556,557,558,559,560,561,562,563,564,565,566,567,568,569,570,571,572,573,574,575,576,577,578,579,580,581,582,583,584,585,586,587,588,589,590,591,592,593,594,595,596,597,598,599,600,601,602,603,604,605,606,607,608,609,610,611,612,613,614,615,616,617,618,619,620,621,622,623,624,625,626,627,628,629,630,631,632,633,634,635,636,637,638,639,640,641,642,643,644,645,646,647,648,649,650,651,652,653,654,655,656,657,658,659,660,661,662,663,664,665,666,667,668,669,670,671,672,673,674,675,676,677,678,679,680,681,682,683,684,685,686,687,688,689,690,691,692,693,694,695,696,697,698,699,700,701,702,703,704,705,706,707,708,709,710,711,712,713,714,715,716,717,718,719,720,721,722,723,724,725,726,727,728,729,730,731,732,733,734,735,736,737,738,739,740,741,742,743,744,745,746,747,748,749,750,751,752,753,754,755,756,757,758,759,760,761,762,763,764,765,766,767,768,769,770,771,772,773,774,775,776,777,778,779,780,781,782,783,784,785,786,787,788,789,790,791,792,793,794,795,796,797,798,799,800,801,802,803,804,805,806,807,808,809,810,811,812,813,814,815,816,817,818,819,820,821,822,823,824,825,826,827,828,829,830,831,832,833,834,835,836,837,838,839,840,841,842,843,844,845,846,847,848,849,850,851,852,853,854,855,856,857,858,859,860,861,862,863,864,865,866,867,868,869,870,871,872,873,874,875,876,877,878,879,880,881,882,883,884,885,886,887,888,889,890,891,892,893,894,895,896,897,898,899,900,901,902,903,904,905,906,907,908,909,910,911,912,913,914,915,916,917,918,919,920,921,922,923,924,925,926,927,928,929,930,931,932,933,934,935,936,937,938,939,940,941,942,943,944,945,946,947,948,949,950,951,952,953,954,955,956,957,958,959,960,961,962,963,964,965,966,967,968,969,970,971,972,973,974,975,976,977,978,979,980,981,982,983,984,985,986,987,988,989,990,991,992,993,994,995,996,997,998,999,1000,1001,1002,1003,1004,1005,1006,1007,1008,1009,1010,1011,1012,1013,1014,1015,1016,1017,1018,1019,1020,1021,1022,1023,1024,1025,1026,1027,1028,1029,1030,1031,1032,1033,1034,1035,1036,1037,1038,1039,1040,1041,1042,1043,1044,1045,1046,1047,1048,1049,1050,1051,1052,1053,1054,1055,1056,1057,1058,1059,1060,1061,1062,1063,1064,1065,1066,1067,1068,1069,1070,1071,1072,1073,1074,1075,1076,1077,1078,1079,1080,1081,1082,1083,1084,1085,1086,1087,1088,1089,1090,1091,1092,1093,1094,1095,1096,1097,1098,1099,1100,1101,1102,1103,1104,1105,1106,1107,1108,1109,1110,1111,1112,1113,1114,1115,1116,1117,1118,1119,1120,1121,1122,1123,1124,1125,1126,1127,1128,1129,1130,1131,1132,1133,1134,1135,1136,1137,1138,1139,1140,1141,1142,1143,1144,1145,1146,1147,1148,1149,1150,1151,1152,1153,1154,1155,1156,1157,1158,1159,1160,1161,1162,1163,1164,1165,1166,1167,1168,1169,1170,1171,1172,1173,1174,1175,1176,1177,1178,1179,1180,1181,1182,1183,1184,1185,1186,1187,1188,1189,1190,1191,1192,1193,1194,1195,1196,1197,1198,1199,1200,1201,1202,1203,1204,1205,1206,1207,1208,1209,1210,1211,1212,1213,1214,1215,1216,1217,1218,1219,1220,1221,1222,1223,1224,1225,1226,1227,1228,1229,1230,1231,1232,1233,1234,1235,1236,1237,1238,1239,1240,1241,1242,1243,1244,1245,1246,1247,1248,1249,1250,1251,1252,1253,1254,1255,1256,1257,1258,1259,1260,1261,1262,1263,1264,1265,1266,1267,1268,1269,1270,1271,1272,1273,1274,1275,1276,1277,1278,1279,1280,1281,1282,1283,1284,1285,1286,1287,1288,1289,1290,1291,1292,1293,1294,1295,1296,1297,1298,1299,1300,1301,1302,1303,1304,1305,1306,1307,1308,1309,1310,1311,1312,1313,1314,1315,1316,1317,1318,1319,1320,1321,1322,1323,1324,1325,1326,1327,1328,1329,1330,1331,1332,1333,1334,1335,1336,1337,1338,1339,1340,1341,1342,1343,1344,1345,1346,1347,1348,1349,1350,1351,1352,1353,1354,1355,1356,1357,1358,1359,1360,1361,1362,1363,1364,1365,1366,1367,1368,1369,1370,1371,1372,1373,1374,1375,1376,1377,1378,1379,1380,1381,1382,1383,1384,1385,1386,1387,1388,1389,1390,1391,1392,1393,1394,1395,1396,1397,1398,1399,1400,1401,1402,1403,1404,1405,1406,1407,1408,1409,1410,1411,1412,1413,1414,1415,1416,1417,1418,1419,1420,1421,1422,1423,1424,1425,1426,1427,1428,1429,1430,1431,1432,1433,1434,1435,1436,1437,1438,1439,1440,1441,1442,1443,1444,1445,1446,1447,1448,1449,1450,1451,1452,1453,1454,1455,1456,1457,1458,1459,1460,1461,1462,1463,1464,1465,1466,1467,1468,1469,1470,1471,1472,1473,1474,1475,1476,1477,1478,1479,1480,1481,1482,1483,1484,1485,1486,1487,1488,1489,1490,1491,1492,1493,1494,1495,1496,1497,1498,1499,1500,1501,1502,1503,1504,1505,1506,1507,1508,1509,1510,1511,1512,1513,1514,1515,1516,1517,1518,1519,1520,1521,1522,1523,1524,1525,1526,1527,1528,1529,1530,1531,1532,1533,1534,1535
acne,0.006420292,0.04629811,0.037705716,0.07325134,0.047066145,-0.008898405,0.02127697,-0.024505116,-0.036529664,0.03052939,-0.014760672,-0.009630439,0.011436521,-0.032377474,-0.015696716,0.026857223,0.04788218,-0.03693768,-0.053954456,0.03991382,0.021372974,0.051314335,0.017628802,-0.02390509,-0.001021547,-0.052658398,-0.013908633,-0.026689215,0.001410814,0.026041185,0.010128461,-0.007938362,0.030217376,0.022681033,0.053762447,-0.05025829,0.016536754,0.00527424,-0.03472958,0.022381019,0.001412314,-0.022969047,-0.023137053,0.013272604,-0.018036822,1.36881235e-05,-0.035713628,0.04305796,0.033625532,-0.008838402,0.00636629,-0.008970409,-0.011502524,0.031321425,-0.064322926,-0.017628802,-0.01646475,0.07953962,-0.064226925,-0.01890086,0.071715266,-0.02832129,-0.025537163,0.028921317,-0.048674215,-0.011514524,0.03160944,-0.021168964,-0.029089324,-0.006384291,0.021468978,-0.004425202,-0.041641895,-0.004008182,-0.059666716,-0.015984727,-0.007116324,-0.007098323,0.009576436,0.04351398,0.014964681,0.022957046,-0.02940134,0.007746353,0.01228256,0.000595152,-0.032113463,-0.027961273,-0.044930045,0.012102551,-0.055490527,0.022921044,-0.01032647,-0.023605075,-0.00330315,0.03715369,-0.039649807,0.053426433,0.009786446,0.04677813,-0.008424384,-0.03204146,0.026833221,-0.042913955,0.001696577,-0.003147143,-0.09130016,0.025081143,0.023329062,-0.012924588,0.019680897,0.06494696,-0.033265516,0.024469115,-0.02460112,0.010842494,-0.037177693,-0.03806573,-0.06321888,0.003111142,-0.010506478,0.002439111,0.014760672,-0.047282152,-0.016056731,0.02001691,0.015756717,0.007422338,-0.006684304,-0.044306017,0.005241239,-0.01360862,-0.01470067,-0.038521755,-0.041617896,0.011604528,0.026545208,-0.013356608,-0.07757153,-0.029089324,-0.009216419,0.035737626,0.05957071,0.006438293,-0.044546027,-0.038977776,0.012684577,0.012828584,-0.010806492,0.038953774,-0.051794358,0.03866576,0.020340927,0.026449203,-0.014808674,-0.08966808,0.03204146,0.001689077,-0.024013093,-0.036529664,-0.003456157,-0.019824903,0.031321425,-0.004047184,0.03972181,-0.03333752,0.010044457,0.021924999,0.015864722,0.007632347,-0.052130375,0.003261149,-0.030241378,0.02656921,-0.036409657,-0.025825176,0.001191054,0.01932088,-0.05990673,0.008178372,0.047954183,0.026953228,-0.004131188,0.002394109,0.012984592,-0.06417892,-0.005958271,-0.038185738,-0.025345154,-0.003147143,-0.017400792,-0.005739261,0.023329062,-0.014112643,-0.006216283,-0.02524915,0.033673532,0.002469112,-0.01782081,0.01054848,-0.01206655,-0.038569756,0.000856539,0.017400792,0.015948726,-0.01846884,-0.000602652,0.01163453,0.03648166,0.01405264,0.003618165,-0.005382245,-0.023089051,0.008418383,-0.048674215,-0.04411401,0.044234015,-0.006312287,0.04481004,-0.009900451,-0.018060822,0.022069005,0.014748671,0.022729035,0.005637257,-0.043177966,0.003642166,-0.01274458,0.0372977,-0.030097371,-0.031057414,0.020232921,0.006744307,-0.041257877,0.009816447,-0.020292925,0.020568937,0.06917115,0.034417566,-0.007326334,-0.016344745,0.016116735,-0.004545207,-0.000454521,0.037177693,-0.011358517,-0.02108496,-0.03187345,-0.032329474,-0.039025776,0.008688396,0.030193375,0.035425615,-0.07406737,0.021372974,0.020160917,0.024217103,-0.083139785,-0.001284058,0.02065294,0.010590483,-0.018768854,-0.03446557,-0.03794573,0.009396428,-0.017856814,0.007854357,-0.039457798,-0.033769537,-0.015276696,0.022117008,0.01492868,0.056114554,-0.040681854,-0.036961682,0.01339261,0.03340952,0.019920908,-0.012456567,-0.00197859,-0.015636712,0.017232785,0.003999182,-0.07445139,-0.009534434,0.009756444,0.035617623,-0.06787509,-0.005757262,-0.030913407,0.012126552,-0.035281606,-0.010938498,0.003798173,-0.057266608,-0.010014456,-0.01230056,0.01428065,0.003492159,-0.020268923,-0.04017783,0.048842225,-0.057410613,-0.038593758,-0.026617212,0.038233742,0.043441977,-0.007578345,0.018060822,-0.006162281,0.02174499,0.007944361,0.033289514,-0.011922543,0.029473342,0.035737626,0.007296332,0.053234424,0.023845086,0.006768308,-0.001074049,0.012828584,0.04550607,-0.062258836,-0.029353337,0.010230466,-0.034369566,0.021900997,0.005115233,-0.060866773,0.01141252,-0.025153145,0.045602076,-0.025873179,0.029089324,0.01580472,0.03643366,0.005205237,0.007194328,-0.016860768,0.02479313,-0.006474295,0.01405264,0.05597055,0.015288696,-0.04084986,0.025081143,0.014592664,0.03141743,0.001725079,-0.034105554,-0.009030411,-0.031321425,-0.010452476,-0.07416338,-0.008730398,-0.019680897,-0.018432839,0.004449203,0.05160235,0.00570626,0.003642166,-0.02239302,0.007374336,0.024769127,0.023953091,-0.043946,-0.025945181,0.01274458,-0.037585713,-0.039673805,-0.05688259,0.01296059,-0.010128461,-0.080307655,0.059858724,0.008862403,0.008544389,0.030913407,0.001238306,0.03446557,-0.002313105,-0.05025829,-0.01736479,0.05337843,-0.013476614,-0.035881635,-0.008982409,-0.08933207,0.011148508,0.038785767,-0.026209194,0.014136644,-0.019644894,-0.003333152,0.06917115,0.04036984,0.006444294,-0.009258421,0.034753583,0.04149789,0.028825313,0.008832403,0.011568527,0.018060822,-0.022453023,-0.01713678,-0.03861776,-0.01494068,-0.035017595,-0.008676395,0.034681577,0.001603573,0.05904269,-0.003132143,-0.0372977,0.028657304,0.046034098,-0.001812083,0.024313107,0.07699551,-0.03446557,-0.009216419,-0.000713283,-0.030265378,0.056258563,0.01647675,-0.008922407,-0.026761219,-0.025825176,0.018864859,-0.007188327,0.003666167,0.003609164,0.019392883,-0.024769127,-0.005307242,-0.015936725,-0.03645766,-0.003801173,-0.05443448,0.004812219,0.00460821,-0.019116871,-0.018756853,-0.0021901,0.008742398,-0.030625394,-0.024913134,0.000422644,-0.008874404,-0.0043952,-0.000106692,-0.025393156,0.034873586,0.005685259,0.05030629,-0.007602346,0.030457387,0.05141034,-0.000358516,-0.005640257,0.028489297,0.021132963,-0.03189745,-0.012492569,-0.008022365,0.000401643,0.025393156,-0.037009686,-0.00549325,0.033697534,0.010530479,-0.014544662,0.027169237,0.020916952,0.01010446,0.00680431,0.000103786,0.030697398,-0.01669276,0.004461203,-0.057170603,-0.000478522,0.034393568,0.05731461,-9.74e-05,0.002373108,-0.02702523,-0.00176258,0.02944934,-0.007122324,-0.01054848,-0.011832539,0.018180829,-0.045554075,-0.010776491,0.005523251,0.04260194,-0.027625257,-0.01602073,-0.028585302,0.024673123,0.021384973,0.020604938,-0.02084495,0.06537898,0.015060686,-0.004362199,0.001957589,-0.025105143,-0.004998228,0.004032183,-0.01165253,-0.07781154,-0.042289924,-0.045122053,-0.052370384,-0.002820128,0.005451248,0.01514469,0.009054412,-0.02788927,-0.001944089,-0.004818219,-0.014916679,-0.027073232,-0.017028775,-9.02e-05,0.00505223,0.012408565,0.024745127,0.00307514,0.022585029,-0.06317087,0.02001691,-0.017724806,-0.016068732,-0.004293195,0.009216419,-0.01515669,0.025993183,-0.004953226,-0.012456567,0.039241787,0.012888587,0.003414155,-0.000975794,0.025993183,0.011076504,0.022729035,-0.034873586,-0.04958626,-0.02264503,-0.009810447,0.011892541,-0.013116597,-0.004125188,0.010140462,-0.000316327,-0.015168691,-0.014640667,0.022285014,-0.003642166,0.005232238,0.001299809,0.014100642,0.011010502,0.008214374,0.011994546,0.01053648,-0.006984318,-0.024493115,-0.0153847,0.032713488,-0.021120962,0.04286595,0.040105827,0.008112369,0.002256103,-0.00483022,-0.001068049,0.03206546,0.04123388,-0.03427356,0.015036684,0.010026457,-0.032977503,-0.012540571,-0.023653077,0.03432156,0.007626347,-0.03187345,0.026161192,0.028009275,0.01274458,0.04481004,-0.011802537,0.01075849,0.003975181,0.023041049,0.029737353,-0.004917224,-0.014796673,0.004797218,0.011556527,0.034153555,-0.012708578,0.000459021,0.029593347,-0.02880131,0.0482902,0.001492568,0.025225148,0.027145237,0.025897179,-0.006396291,-0.052802403,0.037921727,0.009300424,0.037273698,-0.03446557,0.008598392,0.009162418,0.011262513,-0.011340517,-0.009600437,-0.04747416,0.040537845,0.019380882,0.00613828,-0.00813637,-0.01890086,0.023317061,0.011124507,-0.002491613,-0.017640803,0.002319106,0.000699407,0.005184236,-0.001801582,0.017052777,-0.004977227,-0.003717169,0.025945181,0.014688669,-0.006045275,-0.024241103,0.019596891,-0.000849039,0.011142507,0.035857633,-0.014184646,-0.038521755,-0.020472933,-0.039409794,0.007596346,-0.001708578,0.028441295,0.04300996,-0.005817265,-0.01824083,0.009540434,-0.043994002,-0.020604938,-0.03645766,0.03230547,-0.029113326,-0.019224875,0.018324835,0.027289243,0.024025094,-0.007584346,0.021876996,0.03254548,0.006114279,0.007932361,0.031753447,-0.001888586,-0.010710488,-0.020952955,0.002449611,-0.021672986,0.026665214,-0.021660985,-0.007524343,0.014544662,0.006108278,-0.03974581,0.030649396,-0.009570436,0.026857223,0.012828584,0.010662486,0.0328815,0.004623211,0.000128068,0.006420292,0.010626484,0.03888177,0.032449476,0.015864722,-0.000625528,0.00307064,0.030889407,0.00615028,0.001176804,0.015216693,0.038353745,-0.034033548,0.00396018,0.016512752,-0.030241378,0.04017783,-0.002338606,0.005427247,-0.022873042,-0.004860221,-0.016104734,-0.009636438,0.056306563,0.01912887,-0.047834177,0.003564162,0.007290332,0.005739261,-0.013872632,-0.024073096,-0.006432293,0.02109696,-0.05222638,-0.062018823,0.02481713,0.034825586,0.019284878,0.026881224,0.017736807,0.003756171,0.033121508,-0.010128461,0.012126552,0.00130731,0.003762171,-0.022765037,0.016104734,0.02085695,-0.00395718,-0.025225148,-0.006648303,-0.029521344,0.013872632,0.007812356,0.021552982,-0.010302469,-0.007014319,-0.039145783,-0.000321952,0.008394382,-0.008664395,-0.018768854,0.018348835,0.057410613,0.011958544,0.014856677,0.003417156,0.020592937,0.001689077,-0.016824765,-0.004032183,-0.010002456,-0.031297427,-0.009630439,-0.012756581,-0.000996795,0.0285373,0.012984592,-0.013368608,-0.012144553,0.019428885,-0.019728899,0.017880814,-0.022669032,0.015984727,0.044306017,-0.029545344,-0.006126279,0.03268949,-0.012024548,-0.012972591,-0.00594327,-0.02176899,0.005985273,0.059138693,0.011598528,0.01798882,0.019260878,0.005232238,-0.066003,0.010200464,-0.022069005,0.013332607,-0.010458476,-0.004632211,-0.036769673,-0.010854494,0.045266062,-0.016284741,0.011616529,-0.009714442,0.016284741,-0.02899332,0.001674076,0.014916679,-0.007788355,-0.027601257,0.000918042,0.039673805,0.017304787,-0.013692623,0.002328106,0.024205102,-0.022657031,0.011904542,-0.000492397,0.009378427,0.00768635,0.008256376,0.019020867,0.015912725,-0.023881087,-0.02462512,-0.006696305,-0.015300697,0.004143189,-0.03360153,-0.01778481,-0.044738036,0.0395298,0.001243557,-0.002209601,0.039361794,0.001959089,-0.036841676,-0.031945456,0.022729035,-0.03753771,-0.02370108,0.011784537,0.013908633,0.052610394,-0.014772672,0.01954889,0.030865405,-0.0790116,0.005337243,-0.03492159,-0.01644075,0.03806573,0.023749081,0.018804856,0.011646531,-0.00769235,-0.020244922,-0.03998582,0.01650075,-0.04418601,0.038689762,-0.005184236,0.002590618,-0.0351856,0.031753447,-0.02390509,0.000987045,0.045986094,-0.027745264,0.00306764,0.017448794,0.003906178,0.029281333,0.007152326,0.022969047,0.002007091,-0.011508524,-0.021816993,0.015048686,-0.044930045,-0.024649123,0.002467612,-0.005325242,0.022945045,0.001296059,0.017148782,0.002508114,-0.050402295,-0.03182545,0.027337244,-0.005898268,0.013092596,0.00044252,-0.006420292,0.018732853,0.0329295,-0.006222284,0.017280787,-0.002349107,-0.033673532,-0.0175928,0.061970823,0.009594437,-0.003243148,0.005793264,-0.023185056,-0.013920634,-0.010896497,0.018036822,0.037633713,-0.00987645,0.037201695,0.009204419,-0.004377199,-0.01954889,0.010602483,0.005778263,0.019044867,-0.019632895,-0.03578563,0.006252285,-0.02568117,0.000353454,0.008574391,0.028441295,0.010560481,0.008574391,-0.00702632,0.010932498,0.015492706,-0.001798582,0.021672986,-0.001389813,0.01738879,-0.03715369,-0.010956499,0.00395418,-0.027169237,0.013500615,-0.0549145,0.037849724,-0.00747034,-0.022453023,0.002232102,0.03254548,0.009870449,0.030601393,0.017952817,0.005898268,-0.05664258,0.01776081,0.0011018,0.008172372,0.003453157,0.013476614,-0.016596755,0.020808948,-0.03669767,0.023317061,-0.010788491,0.001206055,0.02791327,-0.001150552,0.003201146,-0.02108496,-0.026401201,-0.001176054,0.021264968,-0.00811837,0.002116596,0.004008182,-0.074739404,0.020820947,0.007164326,-0.015792718,1.1514196e-06,0.022513025,0.022105007,-0.015324698,-0.002179599,-0.023581075,-0.011580527,0.009144416,0.035257604,-0.016188737,-0.008772399,-0.014232648,0.005823265,-0.012048549,0.015468705,0.001157303,0.05241839,0.025369154,0.049346246,0.003720169,-0.054578487,0.026089188,0.018384837,0.017052777,0.000354579,0.010272468,-0.03338552,0.015168691,-0.03379354,0.006630302,0.018744854,-0.01428065,-0.029329335,0.05880268,-0.01735279,-0.013680623,-0.010932498,-0.050786313,0.00724833,0.052898407,-0.02176899,0.011928543,0.018156826,0.031273425,-0.003408155,0.018480841,0.03451357,-0.007266331,0.018828858,-0.027097235,-0.011250513,0.00308114,0.005754262,-0.017340789,0.021120962,0.03204146,0.016092733,-0.002127097,0.04267394,0.00308114,-0.025465159,-0.016368745,0.01845684,-0.013716624,-0.017688805,-0.008976408,-0.019668896,-0.021840995,0.022909043,-0.006063276,0.005517251,0.013404611,0.031345427,0.013812629,-0.000496148,-0.008418383,0.002740625,0.048626214,0.001917087,0.000623278,0.009564435,-0.010992501,0.00834038,-0.023329062,0.03979381,0.013332607,-0.004527206,-0.00196509,-0.021204965,-0.013884632,0.040729854,0.030073369,-0.015192692,-0.021816993,-0.032185465,-0.012948589,0.014460659,0.014556663,-0.04255394,0.026449203,0.017016774,0.021252967,-0.01603273,-0.020436931,0.01209655,0.009870449,-0.016992774,-0.021456977,-0.028465295,-0.00528024,0.030241378,-0.009432429,0.033673532,0.017112778,0.03465758,-0.005307242,0.005688259,-0.011376518,-0.004257194,0.017268786,0.048002187,0.030649396,-0.027769264,-0.01798882,-0.001425815,0.006258285,-0.030625394,0.036817677,0.00923442,0.004224192,-0.000768035,0.00503723,-0.029785356,0.016104734,-0.011118506,-0.027361246,-0.025633167,0.006612301,0.016488751,0.024673123,-0.01822883,0.004401201,0.021985002,-0.005502251,-0.017064776,-0.003420156,0.009546435,-0.002778126,-0.0329535,0.02438511,0.015228693,0.032713488,-0.027841268,0.038689762,-0.001777581,0.006174281,-0.02548916,-0.01208455,-0.008400383,0.004896223,-0.007374336,-0.008670394,-0.024121098,-0.015552708,0.005352244,-0.026545208,0.054674488,0.035737626,-0.02524915,0.017112778,0.000338265,0.005856267,-0.010638485,0.052898407,-0.033073507,0.001953089,-0.01494068,0.035425615,0.017676804,-0.003195145,-0.01732879,0.026065188,-0.011430521,-0.018060822,-0.020688942,-0.004095187,-0.008328379,6.4690444e-06,0.018564845,-0.030265378,0.000138475,0.010224465,0.047066145,0.003345152,-0.002136097,-0.02834529,-0.016608756,-0.006894314,-0.001381563,-0.025465159,0.003453157,0.01032647,-0.004083186,-0.024481114,0.009024411,0.009486432,0.003672167,-0.004446202,0.007014319,0.003573163,-0.038113736,-0.007272331,0.011022502,0.002992636,-0.015780719,0.014796673,-0.019812902,-0.012030548,0.019200874,-0.013896633,-0.011100506,0.001071049,-0.019416884,-0.008226374,-0.004680213,-0.010230466,-0.022453023,0.010134461,-0.000859539,-0.01650075,-0.015264695,-0.008502387,2.1856464e-05,0.010716488,-0.032857496,-0.005523251,0.004896223,-0.009078413,0.009258421,0.026209194,-0.026089188,0.02611319,-0.007824357,0.019584892,-0.028489297,0.02985736,0.021168964,-0.04300996,0.049298245,0.008220375,-0.001188054,-0.035233606,0.003102141,0.01141852,-0.001828583,-0.015096688,0.018168828,0.024553118,0.008034366,-0.025465159,0.009552435,0.002841129,0.010158462,0.000780036,0.034873586,-0.026497206,0.011958544,-0.018348835,-0.022093005,-0.031081416,-0.06081877,0.000694532,0.019116871,0.017052777,-0.01782081,-0.001401064,0.007602346,0.002163098,-0.008046366,-0.027145237,-0.005745261,-0.005187236,0.001047048,-0.036121644,-0.01515669,-0.007092323,-0.020916952,-0.026953228,-0.053522438,0.009282422,0.000702032,-0.017688805,0.01426865,-0.034129553,0.01580472,0.03201746,0.002236602,-0.001879586,0.018612847,-0.00506423,-0.004536206,0.000565901,-0.020400928,0.015900724,-0.005994273,0.03931379,-0.01999291,0.013116597,-0.009456431,-0.013896633,0.036361657,0.017016774,0.00482122,0.002373108,-0.036265653,0.010284469,-0.000782286,-0.001993591,-0.009000409,-0.013116597,-0.02019692,0.013104597,-0.014688669,0.01560071,-0.006342289,-0.035473615,-0.003669167,0.00395718,0.006288286,-0.028009275,0.002554616,0.062018823,-0.018828858,0.02462512,-0.012258559,-0.026929226,-0.051074326,-0.024445113,0.01055448,-0.003804173,-0.033769537,-0.009972454,0.003025638,0.014820674,-0.004875222,0.02834529,-0.004890223,-0.021444976,0.047546163,0.0329535,-0.0505463,-0.008088368,0.061202787,-0.02086895,-0.005223238,0.005565254,0.006210283,0.008190373,-0.007302333,0.022609029,0.024529116,-0.061106782,0.013080596,-0.02086895,0.019908907,-0.030913407,0.007416338,0.011328516,0.004941225,-0.003228147,-0.015744718,-0.022801038,0.027769264,0.015300697,0.007872359,-0.012006546,0.002046093,0.0175928,0.02940134,0.011880541,-0.03628965,0.014652668,-0.0197529,-0.010476477,-0.019728899,-0.007854357,0.007632347,-0.008148371,0.002925133,-0.009288423,-0.00790236,0.051890362,-0.024301106,-0.023245059,-0.03189745,0.000371642,0.01185054,-0.005694259,-0.005883268,0.001397314,-0.001639575,0.005247239,-0.015048686,-0.02110896,0.003189145,-0.006390291,0.0549145,-0.001768581,-0.06427493,-0.017448794,-0.023365064,-0.02942534,-0.02439711,-0.026977228,-0.003372154,-0.003013637,-0.005157235,0.043225966,-0.010128461,-0.014352653,-0.012672577,0.006888314,-0.008988409,-0.03748971,0.04365799,0.021396974,0.021468978,0.03201746,-0.003150143,0.02745725,-0.014580664,0.019584892,-0.005622256,0.010374473,0.032329474,-1.5e-05,-0.004965226,0.0329535,-0.018528843,-0.021120962,-0.022873042,0.015984727,-0.004494205,-0.007404337,-0.014004638,0.000591027,-0.008088368,-0.034561574,-0.014184646,-0.025873179,0.005316242,-0.022321016,0.03028938,-0.00636629,0.005616256,0.004074186,-0.04214592,0.007122324,-0.007332334,0.022105007,-0.015444703,0.002962635,-0.002052093,0.01032047,0.02084495,-0.022717034,-0.01274458,-0.009954453,0.016512752,0.04190591,0.000990045,-0.002062594,0.004533207,0.023389066,0.002011592,-0.001767081,-0.005847266,-0.005313242,0.022921044,-0.024109097,-0.003330152,-0.00593127,0.003132143,0.016368745,0.003108142,0.001699577,0.005406246,0.011040502,-0.003972181,-0.031657442,0.07790755,-0.01164053,-0.002941634,0.04365799,0.02940134,-0.003456157,0.002499114,-0.007494341,0.00636029,-0.022153009,-0.006108278,-0.005829265,0.004584209,-0.033625532,0.003651166,-0.001863085,0.00197709,-0.012144553,0.016560754,-0.00504623,0.01514469,0.018252831,0.046082098,0.038329747,-0.003816174,-0.011484523,-0.014304651,0.02788927,-0.002596618,0.024505116,0.025873179,0.029065324,0.013404611,0.006846312,0.012864586,0.03691368,-0.003249148,-0.010344471,-0.06446694,0.044234015,-0.02788927,-0.007392337,-0.016968772,-0.004341198,0.006546298,0.062690854,-0.019692896,0.001185804,0.033049505,0.011934543,0.007650348,-0.012636575,-0.014460659,0.014364654,-0.0241691,-0.024505116,-0.021876996,-0.02877731,-0.010614484,-0.015456704,-0.035617623,0.021396974,-0.023329062,-0.004062185,-0.005349244
acquired immunodeficiency syndrome,-0.03138986,-0.03327764,-0.020502185,0.04609699,-0.04423116,0.050838396,-0.036658086,0.001743729,-0.00565237,-0.010569382,-0.011601076,0.003462762,-0.011809611,-0.01006451,0.02592407,-0.042826302,0.059838288,0.026560647,0.007386494,0.041948263,0.05439445,0.042826302,-0.008297458,0.008955987,-0.015892487,-0.06778453,-0.030621573,0.008335873,0.02408019,-0.031828877,-0.014070558,-0.009104156,0.051233515,0.017626612,-0.047150638,0.009060254,-0.014718112,-0.017308323,-0.005232558,0.013730318,0.041970216,0.032333747,-0.024146045,0.05597492,-0.027702097,-0.003536847,-0.004239277,-0.054745667,-0.014740062,-0.002616279,-0.059135858,0.048072577,0.018054655,0.016430285,-0.04256289,0.07450152,0.005098108,0.081130706,-0.000330636,-0.02056804,0.030797182,0.019657075,-0.030204507,-0.03560444,-0.00897245,-0.06866257,-0.033211786,0.015804684,0.011524248,0.005685296,0.013587638,0.045438465,0.035911754,0.012632771,-0.025946021,0.022477772,-0.054745667,0.01976683,0.00880233,0.044033602,0.013170569,0.020820474,-0.047501855,-0.004110315,0.007649906,-0.039687317,-0.015146155,-0.009707808,0.005037743,-0.002144333,0.02221436,0.033584952,-0.05487737,0.002008512,-0.042475086,0.003671296,-0.007331617,-0.02522164,-0.0179449,0.001783515,-0.007381007,-0.021457052,0.029897192,0.002455762,-0.00256003,-0.004019768,-0.04236533,-0.01040475,0.011326689,-0.020776574,0.053823728,0.035428833,-0.0075182,0.04043365,0.02267533,0.002878318,-0.03927025,-0.020447308,0.04671162,-0.004903293,-0.017966852,0.040389746,0.062823616,-0.04355068,-0.034748353,0.007677345,0.00613529,-1.53e-05,0.008879159,-0.06457969,0.037558075,-0.012402286,0.004395678,-0.017516857,-0.042914104,-0.012402286,0.013401054,-0.005904805,-0.07283325,-0.013466907,0.002710942,0.032531306,0.047984775,-0.019503418,0.002339148,-0.01283033,-0.03189473,0.000238202,0.011337665,-0.00099328,-0.04091657,0.08604772,0.064008966,-0.026911864,-0.026385041,-0.049521342,3.569173e-05,0.011644978,0.005018536,-0.003907269,-0.013587638,-0.038480014,0.050618887,0.015771756,0.043572634,0.01028402,-0.016858328,-0.012083997,0.007792587,0.037404418,-0.02985329,-0.014377872,-0.06651138,0.09070132,0.022719232,-0.05733588,0.030358162,0.007573078,0.00943342,-0.023663122,-0.001017289,0.03518737,0.045438465,-0.020754622,-0.040675107,0.011743758,-0.01341203,0.034155678,0.002249972,0.001688851,0.06313093,-0.032487404,0.03257521,-0.008868183,0.016068095,-0.000890385,-0.039160494,-0.009427932,0.024124093,-0.051672533,-0.007271252,-0.044055555,-0.0462287,0.00885172,-0.002477713,-0.025485052,0.014827866,-0.014520553,0.06348214,0.015705904,0.025265543,-0.021654611,0.016265653,0.022477772,0.023180202,-0.023750927,0.036877595,0.021665586,0.01712174,-0.02451921,-0.02093023,-0.016715648,-0.033233736,0.09307203,0.015233958,0.025550904,-0.001786258,-0.018581478,-0.000689054,-0.029787438,-0.000444164,0.012358384,0.00960354,-0.006892598,-0.044889692,-0.012808379,-0.002072993,0.03815075,-0.01549737,0.00304295,0.02592407,-0.0167815,0.013609588,0.0463165,-0.026802108,-0.024102142,0.023070447,0.005751149,-0.01920708,-0.012676673,-0.039665364,-0.000774457,0.007413933,-0.04071901,-0.023268007,-0.022960693,0.02427775,-0.027636245,-0.029260615,-0.00848953,0.01724247,-0.014915669,0.031433757,-0.05347251,-0.019931462,-0.032553256,0.036197115,0.035955653,-0.007260277,-0.012204727,-0.002322685,0.058565132,0.037645876,0.006173704,-0.022302164,0.039204396,0.01814246,0.041355588,-0.029875241,0.026099678,-0.025485052,-0.016309556,0.031850826,0.005224326,-0.0055042,0.013840074,-0.022444846,-0.014772989,-0.029106958,-0.043397024,-0.03749222,-0.0150364,-0.024870425,-0.016002242,0.021413151,0.0089505,0.00280149,0.004200863,-0.011557175,-0.001015917,0.048423793,0.014860792,-0.014015681,0.005597492,-0.008813306,0.04467018,0.011480346,0.015365664,0.023268007,-0.013115692,0.050092064,0.001033753,0.044955544,0.010492554,-0.04023609,0.042606793,0.01826319,-0.019624148,0.08025267,0.034572743,-0.024958229,0.039687317,0.036658086,-0.018636355,0.0101139,-0.001314999,0.027965508,0.052638374,-0.034133725,-0.031719122,0.05465786,-0.018559527,0.057291977,0.029085007,0.009493785,-0.036460526,0.006557846,-0.010750477,-0.020161947,0.004532871,0.027855754,0.02000829,0.023641173,0.05505298,-0.023970436,-0.023311907,-0.019152204,0.000102466,0.07379909,-0.009894391,-0.016748574,0.00688711,0.006865159,0.03430933,-0.060496815,-0.012171801,-0.007671857,-0.016298579,-0.035253223,0.023268007,-0.005756636,-0.03310203,0.001458366,0.028448429,0.01617785,0.02842648,-0.017857097,-0.015299811,-0.020172922,-0.07946243,-0.005597492,-0.00572371,-0.026516747,-0.029919144,-0.01842782,0.067345515,0.007309666,-0.010020608,0.016452236,0.020096093,-0.014004706,-0.014805915,0.008577333,-0.003122523,0.06616016,0.012819354,-0.024848474,0.012358384,-0.033167884,-0.012841305,0.002414604,-0.01447665,-0.013576662,-0.013763245,-0.043353125,-0.013444956,0.021808269,0.011864488,0.001636718,0.032531306,-0.002282899,0.03310203,-0.000978875,-0.011293763,0.013258373,0.02449726,0.007501737,0.017374177,0.012665697,0.011985218,0.015662001,-0.049653046,0.037382465,0.031433757,-0.00247497,-0.04047755,0.01770344,0.048335988,-0.031060593,0.009378543,0.04074096,0.002550426,-0.013554711,-0.045877483,-0.003912757,-0.024475308,0.024387505,0.016957108,0.015958339,-0.001577725,0.008917573,0.016682722,-0.044494573,0.046140894,0.011184009,0.04304581,0.013708368,-0.002712314,-0.032267895,0.03430933,-0.045482367,0.034155678,-0.010838281,0.014729086,-0.009416957,0.02124852,0.043594584,0.002572377,0.002145705,-0.003728917,-0.040850718,-0.0625163,-0.022444846,-0.002060645,-0.01178766,0.017407103,0.039226346,0.02177534,0.018768061,0.025309443,0.010629747,-0.024936277,-0.028865498,0.008511481,-0.026319187,-0.05487737,0.014388847,0.010415725,0.03720686,-0.018318066,-0.014246166,0.051277418,-0.010086461,0.03883123,0.01052548,0.010651698,-0.009016353,0.014564455,0.02730698,-0.022071678,-0.026319187,-0.006706015,-0.036658086,0.001065307,0.03193863,0.042760447,0.014410798,-0.014290067,0.026736256,0.03312398,-0.04644821,0.006782843,0.03174107,-0.008654161,0.03959951,-0.093511045,-0.009120619,-0.021764366,0.005320361,-0.027109422,-0.02798746,0.039226346,0.04535066,-0.028865498,0.048687205,0.01227058,0.060628522,0.034770302,-0.03841416,0.012204727,0.009921829,0.000139166,-0.02024975,-0.015453468,-0.016924182,-0.02153388,-0.017264422,-0.01040475,0.004574029,-0.031565465,0.018438797,-0.015486394,0.010316946,-0.016452236,0.01569493,0.010322434,-0.01920708,0.014246166,0.019349761,0.001585956,-0.010635234,0.003144474,0.022324115,0.007847465,-0.018274166,0.026648453,-0.011985218,-0.000624916,-0.013675441,-0.003004536,-0.003451787,-0.03567029,-0.034397136,-0.013730318,0.027680147,0.01214985,-0.016913205,0.008994401,0.010377311,-0.001898757,0.013324226,-0.030445967,-0.005339569,0.021061935,0.005641394,-0.00471671,-0.008187704,-0.038501963,-0.050794497,-0.022697281,-0.018548552,0.000896559,-0.02093023,-0.026275286,-0.010179753,0.031082544,0.006557846,-0.00505695,0.02939232,-0.031148396,0.017483931,0.003803002,-0.023487516,0.012676673,-0.021742415,0.004447811,0.00092537,0.015793707,0.013313251,0.04346288,0.0005035,-0.022587527,0.009779148,0.03327764,-0.021907046,0.04899452,0.008198679,-0.016375408,0.007512712,0.004604212,0.019503418,0.015332738,0.02383873,0.015157131,-0.018581478,-0.004719454,0.00654687,-0.004818233,0.004505432,0.023136301,-0.002487317,-0.02339971,-0.011798635,0.015299811,0.002705454,-0.029765487,-0.026933813,0.053340808,0.00353959,0.003180144,0.030797182,0.043528732,-0.003857879,-0.012171801,0.013851048,0.038940985,-0.065413825,-0.006437116,-0.011359616,-0.030028898,0.008280995,0.003410629,-0.04164095,0.005959683,-0.006612723,0.025177738,0.002136102,-0.008423677,-0.013093741,0.009493785,-0.006760893,0.026714304,0.022521673,-0.031126445,0.006431628,-0.016847353,-0.025485052,-0.04328727,0.019492442,-0.008818794,-0.036877595,0.048950616,0.005838953,0.009921829,0.027460637,-0.009784635,0.002018115,-0.030643525,0.009910854,-0.017879048,0.033475198,0.007221862,-0.029787438,-0.010585845,-0.003018256,-0.03395812,-0.013598613,-0.023553368,0.002193723,0.024804572,-0.009910854,-0.009148058,0.017626612,0.019196104,-0.016155899,0.022982644,0.039028786,0.048335988,-0.006810282,0.025133837,0.058872446,0.05176034,0.016276628,-0.007364543,0.022982644,-0.021522906,0.02000829,-0.011090717,-0.007721246,-0.032267895,0.02408019,0.018087583,-0.007101132,-0.004903293,0.023992388,0.020304628,0.057511486,0.029545978,0.004110315,-0.019338787,0.015464444,0.032289844,0.0427824,0.014202264,0.028360626,0.03775563,-0.00362465,0.006212119,-0.01059682,-0.010969987,0.000857459,0.04052145,0.064404085,-0.002078481,0.039511707,-0.008500505,0.033189833,0.005526152,0.04120193,-0.002823441,-0.020161947,0.004263972,-0.012654722,0.04387995,-0.026867962,0.018405871,0.010794379,0.006502969,0.022148507,0.013763245,0.031631317,0.031104494,-0.022653379,-0.012555943,-0.02451921,0.0025175,-0.04047755,0.000970644,0.017791243,0.001178492,-0.025836267,0.016474187,0.003542334,0.004949939,-0.022982644,-0.026275286,-0.006859671,-0.007759661,-0.04300191,0.012555943,0.04297996,-0.036965396,-0.044538476,-0.003067645,-0.007534663,0.03905074,-0.015760781,-0.03887513,-0.017472954,0.022170458,-0.003690503,0.005424628,0.033672757,-0.001760192,0.03286057,-0.030314261,0.013905926,-0.018350992,0.017725391,-0.022060703,-0.014103484,-0.014685185,-0.000120044,0.001902873,0.006985889,0.004252996,-0.017670514,0.021402175,-0.023948485,0.060716324,-0.022807036,-0.017275397,0.003816721,-0.027460637,0.034748353,0.003245997,-0.06918939,-0.023202153,0.018120509,-0.011359616,-0.000375567,-0.03883123,-0.018340018,0.014751038,0.001025521,0.032904472,0.014388847,-0.06607236,0.030709378,-0.003550566,-0.008237094,0.003095084,0.009493785,-0.029436223,0.016068095,-0.013192521,0.056545645,-0.05044328,-0.036394674,0.010026096,0.037338562,-0.02015097,-0.031411808,-0.030006947,0.035758097,0.05465786,0.001786258,-0.030182555,0.007907829,-0.052155454,-0.015233958,0.004593236,0.001994792,0.008945012,-0.016287604,-0.004321593,0.06905769,0.025002131,0.022236312,0.01564005,0.039840974,-0.032509357,0.026560647,-0.03637272,0.003004536,0.007424909,-0.005331337,0.043397024,-0.021303397,-0.023004595,0.007315154,0.051101808,0.006107851,0.028338674,-0.007759661,0.004856648,0.01353276,-0.005273716,0.021007057,-0.013192521,0.038809277,0.000782689,-0.007913318,-0.026209433,-0.000704488,-0.038897082,-0.035714194,0.014268117,-0.014663233,0.02046926,0.026736256,0.014685185,0.009641955,-0.02612163,0.023926534,0.009208423,-0.021303397,0.016375408,0.016441261,0.034836154,-0.030424016,0.011535224,0.031543512,0.021083886,0.017385151,-0.002533963,0.011941317,-0.012040095,-0.027241128,-0.028492332,0.03053377,0.018910743,0.003635626,0.012182777,-0.047721364,0.020842426,-0.019218056,0.019821707,-0.04811648,-0.017418077,-0.014037631,-0.016101021,-0.008352337,0.010212679,-0.028624037,-0.030116701,0.008423677,0.013938853,-0.002244485,-0.004401165,0.003663065,0.025528954,0.009104156,-0.027416736,-0.012753502,-0.001565377,-0.016342482,0.052770082,0.005740173,0.011425469,-0.02750454,-0.011623028,-0.024694817,0.003462762,0.000439019,0.01035536,0.021138763,0.038458064,0.003245997,-0.001650437,-0.01236936,-0.010690112,-0.010465115,-0.022082655,0.004274947,-0.004327081,-0.013521785,-0.016090045,-0.019580247,-0.02185217,-0.007375519,0.018482698,-0.03514347,0.022697281,-0.002317197,0.028294774,0.018054655,-0.02980939,0.00717796,-0.021643635,-0.009718782,-0.015552247,0.024475308,0.015925413,0.017385151,-0.022741184,-0.02449726,-0.001387712,-0.002657437,-0.01549737,-0.008824281,0.001686107,0.016990034,-0.058389526,0.025331395,-0.010794379,0.004991097,-0.020447308,-0.023202153,-0.003380446,0.013862024,0.035055667,0.044340916,-0.023641173,0.011568151,-0.034397136,0.020403408,0.018976595,0.035428833,-0.039423905,0.06335044,0.0156181,0.015903462,-0.006234069,-0.010300483,0.021446077,-0.017209545,0.024870425,-0.008774892,-0.020513162,0.012358384,-0.016583942,-0.008736477,0.00321307,-0.019679025,0.01224863,-0.033716656,-0.04493359,0.011688881,-0.015442492,-0.011996194,0.003084108,0.042628743,-0.002232137,-0.025309443,0.022763135,-0.01724247,-0.031433757,-0.003789283,0.024958229,0.03470445,-0.006332849,-0.02980939,0.00473043,0.0254631,-0.03424348,-0.000858831,0.027131373,0.045701876,0.032026436,-0.012237654,0.009729758,0.03376056,0.028206969,-0.001275899,0.000594048,-0.021127788,-0.016627844,0.003970378,-0.049301833,-0.014191289,0.006502969,0.027614294,0.007238325,-0.002800118,-0.005926756,0.003449043,0.014268117,-0.051979847,0.014652259,0.011008401,-0.006876135,0.022422895,-0.017275397,0.017308323,-0.007435884,0.015870536,0.009729758,0.033453245,0.0242997,-0.007029791,0.020019265,0.020260725,-0.022181435,-0.009197447,0.021610709,-0.03376056,0.009109644,-0.002226649,-0.012709599,-0.028031362,-0.001156541,-0.028755743,0.002470854,-0.021182666,-0.016891256,-0.01469616,-0.002941427,0.008291971,0.031192299,-0.001717662,-8.94e-05,-0.005921268,0.003849648,-0.017472954,0.003117035,-0.022609478,0.001610651,0.028448429,0.007139546,-0.007666369,-0.024167994,0.025133837,-0.016166873,-0.004494457,-0.008873671,0.01341203,0.024124093,-0.027833803,0.01045414,-0.017824171,0.022894839,-0.017110765,-0.008286484,0.019305859,0.013444956,-0.045438465,-0.013873,0.019975364,-0.009971218,-0.02544115,0.017088814,-0.022697281,0.022521673,-0.021358274,-0.016046144,-0.002878318,-0.022741184,-0.023509467,-0.012512041,-0.035933703,-0.010618771,-0.03560444,0.012336433,0.021928998,0.014147387,-0.008412701,0.006316386,-0.015903462,0.018614404,-0.011090717,0.049609143,0.000449994,-0.034594696,-0.042716548,0.04306776,-0.014048607,-0.01680345,0.008906597,0.026867962,0.007260277,0.0150364,-0.006437116,-0.036438577,-0.015826635,-0.015365664,-0.021259494,-0.004535615,0.015563223,0.011381567,-0.0089505,-0.009351105,-0.021863146,0.014498602,0.021939974,-0.014004706,-0.016737599,0.011634003,-0.02544115,-0.000625602,0.009691344,-0.000330293,0.03788734,-0.001421324,0.030950839,0.010871207,-0.027021619,-0.019163178,0.023882633,0.016814427,0.021544857,0.004521896,-0.024650916,0.00329813,-0.015508345,-0.02311435,-0.031763025,0.048248187,-0.012182777,-0.019635124,0.034792256,0.01564005,-0.003846904,-0.016441261,0.00178763,0.017901,-0.012841305,0.004670064,0.03430933,0.013477882,0.026494795,-0.025550904,0.03582395,-0.004283179,-0.029721584,0.002952403,-0.024167994,0.025594806,0.002093572,-0.012786428,-0.022828987,0.043836046,-0.003416116,0.018888792,0.029633781,0.04021414,0.014970548,-0.01261082,0.025419198,0.003945683,-0.03698735,0.007595028,0.03905074,-0.031521562,-0.04232143,-0.016166873,-0.001115383,0.016924182,-0.005915781,-0.035736144,-0.006799306,-0.016671745,-0.007836489,0.015003474,-0.018669281,0.017955877,0.0254631,-0.009987682,0.024804572,0.010421213,-0.013598613,-0.004173424,-0.003992329,-0.010541943,0.035560537,0.002405001,-0.006782843,-0.01110718,0.016331507,-0.047106735,-0.007024304,-0.03441909,-0.003413372,0.007084669,0.000284505,0.006415165,-0.006804794,-0.004634394,-0.02568261,0.01663882,0.011359616,-0.029699635,0.008676113,0.015299811,-0.006684064,-0.01920708,0.04377019,-0.011337665,-0.007990145,0.0648431,-0.012281556,-0.04956524,-0.01826319,0.007238325,0.035736144,0.002385794,-0.029984996,0.001476201,0.01224863,0.021237543,0.005317617,0.04181656,0.009790123,0.024321651,-0.008248069,0.03927025,0.006810282,-0.000934287,0.008204167,-0.035933703,-0.02473872,-0.015420541,0.014981522,0.010059022,-0.011096205,-0.032004483,0.03698735,-0.045965288,0.002826185,0.020326579,-0.011776684,0.00321307,-0.017725391,-0.015958339,-0.06861866,-0.024826523,-0.002587468,0.006563334,-0.04387995,0.000507273,-0.016166873,0.032202043,-0.011634003,0.024167994,-0.001654553,-0.01928391,0.010926085,-0.005367007,-0.004214582,-0.025375297,0.024694817,0.015387615,0.000533339,0.0202278,0.003770076,0.001192897,0.02049121,0.010157801,0.017494906,0.01564005,-0.042892154,0.016946133,-0.012940085,-0.014388847,-0.006931012,-0.010240118,0.004327081,0.011222423,0.016035168,-0.00053917,-7.93e-05,0.013719343,-0.016199801,-0.017714417,-0.011996194,-0.01884489,0.010755965,-0.015870536,-0.021347297,-0.011392542,0.003868855,0.022389967,0.012303507,-0.001706686,0.009801099,0.014103484,-0.017308323,-0.041092176,-0.022521673,0.014103484,0.03264106,-0.01285228,-0.01086572,0.010360848,-0.014004706,-0.005523407,0.008187704,-0.000360476,-0.009850488,0.026077727,-0.02173144,-0.044077504,0.00885172,0.032882523,-0.003652089,-0.031521562,-0.040170237,0.00797917,0.038721472,-0.012709599,0.014915669,-0.020315602,0.037075154,0.032026436,-0.017758317,-0.001639462,0.016616868,0.020403408,-0.012226678,0.002881062,-0.0289094,0.001334892,-0.039028786,0.009861464,0.028997203,-0.015826635,-0.002745241,-0.024716768,0.001791746,0.002251344,-0.003218558,-0.039665364,0.010344384,0.00124846,0.004381958,0.014805915,0.02187412,0.019580247,-0.001396629,-0.000623201,-0.05948707,-0.01756076,0.008906597,-0.04023609,-0.016572967,-0.0346386,-0.01273155,-0.002702711,-0.005811514,-0.017769294,-0.03885318,9.4063245e-05,0.003353007,-0.016836379,0.023443613,0.035780046,0.008434652,0.016155899,0.005460299,-0.017955877,0.016726622,0.007924292,-0.002761704,0.003292642,-0.006963939,-0.04111413,0.003492945,0.007869415,0.00960354,0.001120184,-0.027789902,-0.007320642,0.034199577,0.00642614,0.00197147,0.013225446,0.017626612,-0.030204507,-0.011754734,-0.026758207,0.010563894,0.028843546,0.026297236,-0.021215592,-0.010777916,0.009740734,0.000126561,-0.011557175,0.060057797,-0.02405824,-0.040279992,0.001760192,0.02566066,-0.011974243,-0.017198568,-0.007962707,-0.008703551,0.040367793,0.02339971,0.00892306,-0.047765266,0.003904525,0.011151082,0.000943205,0.00873099,0.017396128,-0.02090828,-0.014026657,-0.02566066,-0.001598303,0.006491993,-0.018318066,0.010377311,-0.002575121,0.009334641,0.03327764,-0.007018816,0.030314261,0.02083145,0.033211786,0.01826319,-0.009241349,-0.032706913,-0.009427932,0.030028898,-0.005619443,-0.005040487,0.003188375,-0.010717551,0.006920037,-0.008516968,0.0312801,0.002325429,0.031060593,0.016452236,0.006409677,0.016594917,-0.020414382,-0.015157131,0.004914269,-0.021325346,0.15795903,-0.034287382,-0.003717942,0.003449043,0.017659537,0.013609588,0.016265653,-0.028250871,-0.003967634,0.007342592,0.019503418,-0.002949659,-0.008840744,0.045877483,-0.02847038,-0.007435884,-0.002675272,-0.001236799,0.044494573,-0.019536344,0.030665476,0.04355068,-0.010091948,0.00490055,-0.012325458,-0.039248295,-0.02684601,-0.002395397,0.010487066,0.009861464,-0.0121279,-0.010701087,-0.012336433,0.009329153,0.009784635,0.010832793,-0.006843208,-0.023750927,-0.032289844,0.012698624,-0.018153435,-0.000236659,-0.028163068,0.021336323,-7.82e-05,0.04370434,-0.023663122,0.001148309,0.029019155,-0.002513384,0.000441763,-0.03196058,-0.006513944,-0.00063452,0.002642345,0.013214471,-0.01433397,-0.006744429,-0.017615637,-0.007874903,0.009576102,0.033189833,0.011568151,0.021797292,0.030555721
acute skin abscess,-0.05530285,0.014224852,0.02955842,0.059693374,-0.012705907,0.019801702,-0.03463635,-0.034215037,-0.000351671,0.006546979,0.019768441,-0.021486953,-0.029270153,-0.035434626,0.05042449,0.003678172,0.061644718,-0.012606123,-0.051888,0.044348717,0.002173087,-0.045058295,0.003880513,-0.022651108,0.028671445,-0.025766606,0.021542389,-0.025389642,0.020588892,-0.009357579,0.008947354,-0.007916246,0.052109744,0.017007733,-0.001442719,-0.014091805,0.018970164,0.018692985,0.01780601,0.015145087,-0.012983087,-0.016043149,-0.03357198,0.03463635,-0.043173477,-0.001250772,0.002687255,-0.004676018,0.02244045,-0.039536882,-0.003725292,-0.00965139,0.023637867,0.009618128,-0.043993928,0.006413933,-0.001024871,0.019402564,-0.02955842,-0.030356698,0.002684483,-0.007777656,-0.006325236,-0.02711924,0.038539037,-0.06843007,0.022972636,0.023926133,-0.03206412,-0.04190954,0.032795876,-0.005981533,-0.034725044,-0.026476184,0.000273368,0.00413829,-0.028826667,0.045457434,0.00276348,-0.000248422,0.005039123,0.0795616,-0.04197606,-0.032130647,0.012983087,-0.017994491,-0.066345684,-0.021520216,-0.013393313,-0.014812471,-0.00148291,0.02971364,-0.025323117,0.008642457,-0.0390047,0.019369302,-0.04887229,0.025367467,-0.047630522,0.07676763,-0.024901805,-0.018582113,0.03379372,-0.036210727,-0.011109354,-0.018327108,-0.079605944,-0.004809064,-0.012572861,-0.058584657,0.019801702,0.020112144,0.008548215,0.04284086,-0.011630451,-0.01497878,-0.011563928,-0.008925179,-0.002203577,-0.018837119,0.000778181,0.049847957,0.03261848,-0.113000534,-0.012351118,0.036255077,-0.003417623,0.033904593,-0.014479856,-0.046787895,0.005066841,-0.001252158,0.006197733,-0.05521415,-0.015100738,0.024657886,0.014513118,0.018105363,-0.057209846,-0.013737015,-0.019524522,0.051400162,0.04268564,-0.0050807,-0.028383179,-0.01709643,-0.000212216,0.04807401,-0.009230077,-0.006086861,-0.054815013,0.0604473,0.014502031,0.008553759,-0.023371775,-0.08213382,0.036765087,-0.04913838,-0.005804138,-0.03510201,-0.02935885,-0.04598962,0.031443242,-0.009318775,0.026720103,0.005413315,-0.042552594,0.005028036,0.014768123,-0.001242457,-0.02904841,-0.012450903,-0.05144451,-0.006075774,-0.036587693,0.01961322,0.059249885,0.043838706,-0.027363159,0.03638812,0.040002543,0.009302144,0.03785163,0.037119877,0.008060379,-0.035700716,0.013116133,-0.034946788,-0.0022701,-0.020866072,-0.003060062,-0.042641293,0.04887229,-0.018083189,0.009939657,-0.023438297,-0.015433353,-0.004789662,-0.0031349,-0.03501331,0.026232267,-0.04414915,0.017284913,0.022041313,0.007572543,-0.05494806,-0.046122666,0.017861446,0.03933731,0.000849555,0.019979097,-0.024480492,0.022385014,0.004179867,-0.029447548,-0.0134044,0.07259885,0.008609194,0.027052717,-0.001697724,0.028272307,-0.009479539,-0.033039793,0.05175495,0.010682497,-0.013903323,-0.014413334,-0.027939692,0.03432591,-0.0276736,-0.017429046,0.001561906,-0.003384362,-0.018094277,-0.006048056,0.009723457,0.00450971,0.041133434,0.000249462,-0.0050807,0.018792769,-0.007966138,-0.030888882,0.03678726,0.016930124,-0.03860556,0.028294481,-0.008204512,-0.018881466,-0.01752883,-0.012406554,0.021331733,-0.000262454,-0.05215409,0.021708697,-0.007117969,-0.018061016,-0.022662194,-0.04944882,-0.017916882,-0.009401928,-0.025544861,-0.012772431,-0.013825713,0.022595672,-0.009041594,0.028804492,-0.017839272,-0.020611066,0.00634741,-0.007910702,0.01521161,0.054061085,-0.004221444,0.012018503,-0.009329861,-0.038428165,0.007744395,-0.027562728,-0.046078317,0.051577557,-0.030401045,0.016298154,-0.02614357,-0.003822305,0.016819252,-0.022462625,-0.023216553,-0.008781046,-0.005562992,-0.034968965,-0.016730554,-0.02098803,-0.009612585,0.00327349,0.051710606,-0.014413334,0.017384697,0.030800184,0.053839345,0.00566832,0.04033516,-0.03667639,-0.021309558,0.017517744,0.049360123,-0.001172469,-0.038893826,-0.000520058,-0.020223016,0.026387487,-0.012439815,0.02645401,0.015666185,-0.003852795,0.006774267,-0.037629887,0.026564881,0.019446913,0.026320964,0.022495886,-0.003719749,0.027806645,-0.077610254,-0.024280922,0.018903641,-0.016220544,0.000943103,-0.004473677,-0.051089723,0.04190954,0.018171888,0.06878486,-0.012439815,-0.01910321,-0.003683715,0.066434376,0.019846052,-0.03179803,0.029669292,0.009130293,-0.024835281,-0.006508174,0.052774973,0.03938166,0.021010205,0.014612902,0.033904593,0.036077682,-0.008753328,0.004628897,0.005887292,0.04630006,0.05778638,-0.07459454,-0.031908903,0.004096713,-0.021642175,-0.041443877,0.022152184,-0.036543343,-0.015012041,-0.015377917,-0.002591628,0.002182788,-0.001244536,-0.061644718,-0.091447055,-0.020866072,-0.023283077,-0.025212245,0.004797977,-0.024946153,-0.024436144,-0.036765087,0.031487588,-0.028826667,0.02676445,0.016963385,0.011940892,0.050646234,0.03219717,-0.026653579,-0.000402257,0.075437166,-0.023105681,-0.026631406,0.02676445,-0.050247096,-0.005660005,-0.000154008,0.001823841,0.008836482,-0.012162636,-0.019635394,0.026853148,0.012373292,0.022041313,-0.017007733,0.015865754,-0.005565764,0.012439815,-0.015178349,-0.02543399,0.032174993,0.003323382,0.016530985,-0.01627598,0.018360369,-0.012750256,-0.007655697,-0.02267328,0.02503485,0.023748739,0.017872533,-0.036587693,0.002403146,0.03352763,-0.009862046,-0.022185447,0.0553472,-0.006801985,-0.010227923,0.006170015,0.023770912,-0.008476148,-0.000402257,-0.03514636,0.010654779,0.053839345,-0.005091787,0.009723457,-0.031576287,-0.015156174,0.014590728,-0.001396292,0.013027436,-0.04033516,-0.032308042,0.01776166,-0.06749875,0.010205749,-0.021109989,0.001528645,0.03379372,-0.030445395,0.012173723,-0.028804492,-0.003467515,-0.00772222,-0.002561139,-0.051976696,-0.06940574,-0.001351943,-0.000280991,-0.011963067,0.027296636,-0.055568945,0.062398646,0.05224279,0.012040677,0.035745066,0.025567036,0.032241516,-0.007949508,-0.03352763,-0.015145087,0.003808446,0.03042322,0.010710215,0.017218389,0.06301953,-0.002554209,0.005269182,0.018282758,0.024613539,-0.00656361,-0.048251405,-0.002059444,0.035035487,-0.024480492,-0.044636983,-0.08022683,-0.023948308,0.02350482,0.026165742,0.015499877,0.004551287,0.024790933,-0.010266728,-0.001290271,0.032441087,0.06838572,-0.008010487,0.029647117,-0.023371775,-0.032241516,0.037873805,0.028471876,-0.041887365,0.008265493,-0.024857456,0.053440206,0.044792205,0.03729727,-0.010017267,0.054415878,0.022451539,-0.006280887,0.011641539,0.006552523,0.012428728,-0.011519579,-0.011364359,-0.014834646,-0.00146628,-0.028316656,-0.0535289,-0.019280605,0.012195897,-0.006352954,0.000699185,0.0030268,-0.017517744,-0.008487236,-0.041089088,-0.039559055,-0.049360123,0.000142054,0.002536192,0.003137672,-0.011048374,-0.007223297,0.015122913,-0.010954133,0.022928286,-0.015045302,0.028205784,-0.006957205,0.021331733,0.00261796,0.01521161,-0.004188182,-0.030711487,0.021542389,0.006962749,-0.00921899,-0.028250134,0.02071085,-0.011070549,-0.01360397,0.008936266,0.013936585,-0.018814944,0.034259383,0.021021292,0.01399202,-0.06084644,-0.020999117,-0.013326789,-0.012273507,-0.04406045,0.008886375,-0.018038841,-0.014147241,0.028117087,-0.020777375,0.009995093,0.039669927,-0.004687105,0.009934112,0.030157128,-0.03525723,-0.000552627,0.018803855,0.005174941,-0.010981851,-0.007045902,0.00112327,-0.018449066,0.013892236,-0.018293846,0.005222062,0.029935384,-0.036232904,0.020866072,0.040623426,-0.01953561,-0.004886674,0.001487068,0.017706225,-0.002142598,0.010094876,0.012096113,0.019369302,0.024480492,-0.009789979,-0.030866707,-0.014801385,-0.003021256,0.014102892,-0.031709332,-0.032219343,0.033948943,0.005280269,0.025145723,-0.001149602,0.000640285,0.003342785,0.012938738,0.023482647,0.020976944,-0.009091487,0.019446913,0.042951733,0.027030542,-0.043483917,-0.005429946,0.035745066,-0.012506339,0.019990185,-0.018404718,0.001697724,0.011885456,-0.000345435,0.030911056,-0.022606758,-0.06337432,0.0553472,0.04375001,0.020500194,0.02126521,0.013326789,-0.01579923,0.00132076,0.019147558,-0.027895343,-0.012284595,0.004847869,0.014457682,-0.02138717,0.021631086,0.025478339,-0.015555313,0.019956922,-0.000478828,0.005069613,-0.001247308,-0.008210056,-0.013371138,0.0406456,-0.015389005,-0.01175241,0.032441087,-0.017129691,-0.044393066,0.022152184,-0.01497878,0.02071085,0.017107518,-0.051134072,0.015278134,0.027074892,-0.012827867,-0.017584266,0.007522651,0.015810318,-0.019469086,-0.002281187,0.021531302,0.06372911,0.029780164,0.009274426,-0.000644096,0.036809437,-0.014224852,0.00284109,0.011685887,-0.009839872,-0.02350482,0.024901805,0.019624308,-0.019191908,0.056943752,-0.007827548,-0.018371455,0.009612585,-0.013193743,-0.040978216,0.004745313,3.4127723e-05,0.015588574,0.026210092,0.016098585,-0.010543908,0.016320327,0.012417641,-0.025057025,0.007960595,0.012085025,0.014890082,0.003963667,0.054194134,-0.05255323,0.010482928,0.003741923,0.01623163,0.033283714,-0.010494015,-0.042197805,-0.023726564,0.004820151,-0.051976696,0.014923343,-0.022429364,0.017406872,-0.010460754,-0.004953197,0.037208576,0.012517425,0.033172842,0.003719749,-0.02700837,-0.021065641,-0.007262102,0.035323754,-0.035035487,-0.04359479,0.014745949,-0.033217188,-0.034680698,-0.01796123,0.004099485,0.01051619,-0.022274144,0.019158646,-0.02267328,0.035345927,0.014690513,0.013958759,0.003711433,0.010327708,-0.035323754,0.03255196,-0.032352388,0.012694821,-0.027451856,-0.0536176,-0.014601816,0.009041594,0.055568945,0.005826313,0.021719784,-0.05920554,0.046832245,-0.031975426,-0.00835419,0.024524841,-0.0017296,0.004232531,0.04501395,0.026875323,0.003439797,0.000583809,-0.016608594,-0.021875005,-0.026431836,-0.00284109,-0.021963703,0.024524841,-0.029469723,0.016730554,-0.045257866,0.016242718,0.013437661,-0.025456164,-0.05175495,-0.011375446,-0.01541118,0.000574455,0.017717313,-0.02441397,0.015932277,0.003625508,-0.052331485,0.011037287,0.021442605,-0.014335723,-0.004434872,-0.003179249,-0.017939055,-0.002504317,0.032308042,-0.018127538,-0.003384362,-0.026919672,0.013725928,-0.059649024,0.008686805,-0.01918082,0.03206412,0.003082236,0.016253805,-0.005091787,0.008891918,0.025611384,-0.021952616,-0.008814308,-0.024857456,-0.010749021,-0.010981851,0.005820769,0.014025282,0.012750256,-0.0390047,0.013105046,0.02991321,0.015122913,-0.02417005,-0.007932877,0.04461481,-0.005463208,-0.015200523,-0.009440733,0.009690194,0.064261295,0.013515271,0.04630006,0.034436777,-0.006170015,0.005574079,0.032374565,-0.030556267,0.009141379,-0.016686205,0.0168636,-0.018615374,-0.001303437,-0.029846687,-0.028671445,0.011081636,-0.010765651,-0.028782317,-0.024436144,0.009158011,-0.05259758,-0.030046256,0.003292892,-0.004742541,0.006303061,0.009119205,0.03463635,-0.031620637,-0.04324,0.004445959,-0.025057025,-0.013293528,0.042663466,-0.045546133,0.020511283,0.007167861,-0.00321251,-0.045413088,0.007234384,0.010937503,-0.001275026,0.032884575,-0.019746266,0.006325236,-0.011951979,0.009751175,-0.004759172,0.012805692,-0.004118887,-0.06355171,-0.025323117,0.016054235,0.022695456,-0.004886674,-0.03195325,-0.008071466,0.010216836,-0.011508492,0.00370589,0.005405,-0.025101375,0.003650454,0.025345292,-0.021220861,0.014446595,0.019313866,0.01175241,0.005953815,-0.01862646,-0.020655416,0.010909785,0.003007397,0.035434626,-0.016530985,-0.000558517,-0.020899333,-0.022163272,-0.011785672,0.006364041,-0.011918718,-0.008897461,-0.011486318,0.031310193,0.037319444,-0.010155857,-0.004936567,-0.005429946,-0.02833883,-0.008814308,0.012960913,0.011663713,-0.012340031,-0.000275967,0.012439815,-0.017074257,-0.0069184,0.014635077,0.000135298,0.008819851,0.000778181,-0.033350237,0.024280922,-0.01800558,0.012683733,-0.003251315,0.003478603,-0.003140444,0.021121077,-0.017850358,0.006912856,-0.002056672,-0.029181456,0.027518379,-0.030955404,-0.004484764,-0.008781046,0.012705907,0.01780601,-0.033594154,0.017905794,-0.047940962,0.020023447,-0.019746266,-0.018959077,-0.0039997,0.003899915,0.003037887,0.078896366,-0.016342502,-0.00094241,-0.028316656,0.023748739,0.008553759,0.062309947,0.012672646,0.015233784,-0.023526995,0.000931323,-0.006164472,0.014989867,0.013703753,-0.045546133,0.002533421,0.03774076,0.021065641,-0.001589624,-0.023393948,0.02955842,0.002102407,-0.011020657,0.006552523,-0.023105681,-0.024059178,0.014313549,0.02012323,0.0039997,0.004853413,0.031044101,0.015533138,-0.030489743,-0.01737361,-0.002410076,-0.012883303,0.005091787,0.04887229,0.014513118,0.006402846,-0.028405353,-0.005726528,0.029114934,-0.033993293,0.023682214,0.017706225,0.04909403,0.021353908,0.00952943,-0.019635394,0.01757318,0.027141415,0.019857138,-0.029469723,0.002550051,-0.034769394,0.00235464,-0.010926415,0.001764247,0.013238092,0.021686522,-0.002429478,-0.001554977,-0.003899915,-0.013227005,-0.01752883,-0.03993602,-0.002698342,0.027518379,0.017506655,0.006685569,0.010582713,-0.015655097,-0.007766569,0.033039793,0.024280922,0.014513118,0.008581477,-0.019557785,-0.019324953,0.03037887,-0.028205784,-0.005876205,0.029336676,-0.000229193,0.026409661,-0.004831238,0.012284595,-0.008298754,-0.008620282,0.016974472,0.050646234,0.03474722,0.003575615,0.010577169,0.020344974,-0.0552585,0.017739488,0.020888247,0.016287066,-0.04033516,0.012583949,-0.03195325,-0.007894072,0.025877476,-0.005596254,0.007395149,-0.00483401,0.001855717,0.01953561,-0.003198651,0.017706225,0.0062698,-0.023660041,0.032995448,0.009540518,-0.023815261,0.00597599,-0.016198369,0.036454644,-0.017307088,-0.027784472,-0.006696656,8.133485e-05,-0.027230112,-0.015621835,0.019136472,-0.02589965,0.010283358,0.0380512,0.019602133,0.01717404,-0.016109671,0.015710533,0.02232958,-0.0121072,-0.005493697,-0.014579641,-0.013182656,0.01218481,-0.020356061,0.017185127,0.000719974,0.027274461,0.011508492,0.031265847,0.01133664,-0.023416122,0.021498041,0.037873805,0.027518379,-0.03942601,0.015089652,-0.004992003,0.025700081,-0.006818615,0.010627061,-0.00186126,0.026697928,-0.004900533,0.000933402,-0.023571344,0.014989867,-0.014657252,-0.044548288,-0.014324635,0.009534975,0.03261848,-0.005574079,-0.005615656,-0.007982769,0.021021292,4.413217e-05,0.004310141,0.002746849,0.012495251,-0.04452611,-0.011619364,-0.007528195,0.000543965,0.05392804,-0.010848805,0.025300944,0.008387451,0.004282423,-0.037785105,-0.001254237,0.00278011,0.015311395,-0.02134282,-0.04335087,-0.008592564,-0.007034815,-0.00246274,-0.007151231,0.07508238,0.02527877,-0.022229794,0.014834646,0.011247943,-0.007461672,0.011985241,-0.016187282,-0.007356343,-0.008465062,-0.005477067,0.07251015,0.024391795,0.004055136,-0.010222379,-0.004005244,-0.0552585,-0.001016556,0.019868225,0.002929787,0.020633241,-0.022595672,0.006508174,-0.020699764,-0.029314503,0.012317856,0.05916119,-0.000275274,0.014934431,0.006297518,-0.002473827,0.01073239,-0.01434681,-0.008071466,0.019480174,0.015400092,-0.009607041,-0.030822359,0.009828785,0.007140143,0.001017942,0.011996328,0.009862046,0.008492779,0.000787883,0.02267328,-0.016919035,-0.016087497,-0.016264891,-0.006153385,-0.015167262,0.016885774,-0.016154021,-0.02071085,0.006929487,-0.00591501,-0.02114325,-0.032685004,-0.026830975,-0.020843897,-0.015100738,0.03357198,-0.019458,-0.009496169,-0.017517744,0.004581777,-0.010909785,0.011270118,0.001166233,0.009052682,0.02213001,-0.007206667,0.019901486,-0.007882984,0.007910702,0.018571025,-0.022473713,0.005410544,0.026032697,0.06913965,0.015267046,-0.013892236,0.040046893,0.013260267,-0.0112424,-0.034924615,-0.00685742,0.034259383,0.001392134,-0.022152184,-0.01497878,0.051222768,0.008703436,-0.026431836,0.019834964,0.02083281,0.051311467,-0.013215918,0.024436144,-0.014080718,0.042907383,-0.017506655,-0.03667639,-0.014623989,-0.032130647,0.05982642,0.009091487,-0.006546979,0.01800558,-0.001586853,-0.01780601,0.00199985,0.021930441,-0.006175559,0.020588892,0.012395467,-0.005363423,-0.033438932,0.001245922,-0.002532035,-0.018227322,0.002281187,-0.019280605,0.003176477,-0.006014795,-0.002193876,0.037962504,0.004407154,0.053307157,0.008598108,-0.024524841,-0.020333886,0.024746584,-0.009424103,-0.028316656,0.022662194,-0.020145405,0.003841708,-0.008282123,0.010111508,-0.017074257,0.002954733,0.002247926,-0.013958759,0.003312295,0.029935384,0.014357897,-0.032751527,-0.047320083,-0.001507856,0.011153703,0.03164281,-0.001761476,-0.004590092,0.000147425,0.002311677,0.023926133,0.00146628,-0.000384933,-0.022473713,-0.029624943,0.00952943,-0.017983405,-0.011020657,-0.05397239,0.019779528,-0.003326154,0.014391159,0.015300307,-0.0105938,-0.046122666,-0.010444123,0.01579923,0.006447195,-0.047630522,0.011314467,0.011353272,0.020145405,-0.01709643,0.004445959,-0.01391441,-0.000855792,0.015078564,0.005920554,-0.03175368,0.000687752,0.02503485,-0.032130647,-0.024923978,0.001427474,0.012794605,0.004870044,-0.00041958,0.014623989,0.01304961,-0.010405318,0.03346111,-0.0224848,0.022518061,-0.003370503,0.016907949,0.006314149,-0.019557785,0.025500512,0.002235453,-0.028205784,0.031154973,-0.004443187,-0.005130592,0.004875587,0.010166943,-0.027806645,0.033904593,-0.004520797,-0.04284086,0.009346493,-0.017351435,-0.017218389,-0.012273507,0.029225804,0.004465362,0.022041313,-0.011137072,-0.049936656,0.001940256,0.007245472,-0.021209775,0.009141379,-0.021043466,0.009684651,0.015333569,-0.021919353,0.006242082,0.021863917,0.005319074,0.02123195,-0.012040677,-0.002135668,0.019812789,-0.002762093,0.03501331,-0.02472441,-0.025012678,-0.029669292,-0.007788743,-0.018537764,-0.050247096,-0.01112044,-0.059249885,-0.03057844,-0.017085344,0.056899406,0.017894708,-0.00478689,-0.02660923,0.005754246,-0.019458,-0.02614357,0.003140444,0.016397938,-0.000358254,0.012639385,-0.007018185,-0.02138717,0.008077011,-0.013925497,-0.012960913,0.001929169,0.050025355,-0.015156174,-0.002274258,0.049271423,0.001301358,-0.056899406,-0.012838954,0.018526677,0.01714078,-0.021409344,-0.014136153,0.020289538,-0.023526995,-0.01969083,0.002397602,-0.011508492,-0.007949508,-0.010433036,0.024147877,0.015499877,-0.008470605,0.008132446,-0.003301208,0.007101338,-0.011696974,0.005959359,-0.022141097,-0.001798895,0.011347728,-0.000751156,0.012173723,-0.010250097,0.021353908,-0.002232681,-0.003772413,0.027385334,-0.01862646,0.002407304,0.022795241,0.011541754,-0.006585785,-0.03541245,0.003107182,-0.018327108,0.017196216,0.004506939,0.016996646,0.001198801,0.008681261,0.03678726,0.00084609,0.031044101,-0.001962431,-0.006846333,-0.024125703,-0.026054872,0.041288655,-0.05175495,-0.018349282,0.029137107,0.03698683,0.021209775,0.028627098,0.030179303,-0.023615692,-0.017462308,0.026830975,0.024059178,-0.028715795,0.010665867,0.004723138,-0.018127538,-0.00974563,-0.006175559,0.04838445,-0.002987995,0.028715795,0.06696656,0.011441969,0.047453128,0.021486953,-0.024524841,-0.03643247,-0.012972,0.020500194,0.002487686,0.019469086,-0.007888529,0.017883621,-0.006380672,0.02401483,0.008071466,0.012805692,-0.014258113,-0.014235938,0.027296636,-0.021243036,0.006158928,-0.02700837,-0.034458954,-0.026276615,0.04501395,-0.03173151,0.009063769,0.030534092,0.023393948,0.038339466,0.006685569,-0.03809555,-0.001094166,-0.03352763,-0.006258713,-0.012927651,-0.051267117,0.00909703,-0.010189118,0.004326772,0.010211292,0.012362205,0.026054872,0.004870044
aggressive periodontitis,0.000514569,0.04688606,0.037349913,0.07208206,-0.059834655,0.052635796,-0.007257289,-0.022776904,-0.034521792,0.02736968,0.04309965,-0.017588116,0.018242558,-0.057357125,0.028024122,-0.00372798,0.014234103,-0.020404553,0.019493008,0.06689327,0.03540996,0.011645554,-0.010991112,0.009623797,-0.04646535,-0.03484901,0.008910922,0.0321845,0.004972587,-0.011955245,0.005925033,7.997918e-05,0.07198857,0.017319327,0.013345933,-0.006129546,0.006193822,0.045062974,-0.014409401,0.011850067,-0.017588116,-0.03854193,-0.003707528,0.03933661,-0.013708213,0.004169143,0.005437124,-0.018008828,0.02858507,0.033586875,0.020159137,-0.006205508,0.030221175,0.013369306,-0.001405296,0.005142041,0.020042272,0.060769573,-0.010295767,4.465162e-06,0.000988966,-0.04286592,0.019656619,0.002814975,-1.46e-05,-0.05207485,-0.060395606,0.02608417,-0.01569491,-0.010967739,0.00662622,-0.041533664,-0.0817117,-0.011137192,-0.006760615,0.002582707,-0.035059366,0.05081271,-0.017389446,0.00233437,0.000401722,0.027182696,-0.005320259,-0.004662896,0.001751508,0.010745697,-0.048896134,-0.033984214,-0.022870395,0.021982225,0.044291668,0.032371484,-0.014292535,-0.018476287,0.011189782,-0.006415865,-0.0274398,0.018756762,-0.015204079,0.048194945,0.008408405,-0.06516368,0.02195885,-0.014736621,-0.03145994,-0.03627476,-0.08390875,0.011043701,-0.001865451,-0.042024497,0.04398782,0.017716667,-0.04174402,0.026878849,0.010541183,0.013357619,-0.041323308,0.00115769,0.03433481,-0.020007214,-0.04688606,0.024915524,-0.05048549,-0.046745826,-0.010062039,0.04613813,0.039546967,0.005314416,-0.028117614,-0.048522167,0.0472834,-0.004718407,-0.038728915,-0.018546406,-0.048428673,-0.004624915,0.014432773,0.017295955,-0.08199218,0.005805247,-0.02898241,0.01879182,-0.021690063,-0.020533103,-0.058712754,-0.04083248,-0.029239513,0.017073913,-0.03050165,0.006456767,0.008758999,0.07474657,0.019528069,0.00064239,-0.007596197,-0.050064776,0.038962644,-0.005352397,-0.016921988,-0.024424693,-0.036718845,-0.07053945,0.013638094,-0.002344595,0.024541557,0.033025924,-0.013860137,-0.026691865,-0.010348357,0.049316846,0.013825078,-0.047961216,-0.082225904,0.019294338,0.01095021,0.028631818,-0.01906061,0.010547027,-0.016735004,-0.061610997,0.017073913,0.057590857,0.015320944,0.006801517,0.011067074,-0.011154722,-0.007105365,0.024868779,0.014654816,0.052261833,0.061610997,-0.031974144,0.040902596,-0.023980608,0.020790204,-0.06979152,0.03405433,-0.003669547,-0.011703986,-0.04583428,-0.005866601,-0.004966744,-0.014573011,-0.015274198,0.019142415,-0.05282278,-0.030057564,0.003006341,0.030127684,0.027790392,0.03884578,0.00849021,0.06581812,-0.020790204,0.042421836,-0.028374715,0.027650155,0.01913073,0.07301698,-0.015624791,0.023326166,-0.03136645,-0.029286258,0.080636546,0.017821845,-0.033189535,0.004914155,0.004183751,0.003295581,-0.04870915,-0.031343076,0.01616237,-0.013392678,-0.008028596,0.014315909,-0.021339469,-0.003917885,0.03082887,0.02954336,-0.011330019,-0.02304569,0.039149627,-0.042655565,0.01737776,0.017190777,-0.002576864,-0.018628212,-0.03001082,-0.025943933,-0.010874247,-0.049690813,-0.06287313,0.021771867,-0.004142849,0.010564556,0.005372848,0.012691491,-0.007526078,-0.069137074,0.056281973,0.001113135,-0.006690496,0.023887116,-1.26e-05,0.015624791,0.018184125,0.02552322,-0.025312863,-0.065303914,-0.011312489,0.015835147,0.0240741,0.06740748,0.00371045,-0.008104557,0.042351715,-0.007976006,0.012446076,-0.04092597,0.004665818,-0.02331448,0.002300771,0.03354013,-0.04662896,0.002199975,0.014584697,-0.003082303,0.016886929,-0.020825265,0.040107917,-0.008764842,-0.06053584,-0.01497035,-0.005872444,-0.053336985,0.009670543,-0.022706784,-0.07208206,-0.01513396,0.03066526,0.011289117,0.043216515,-0.030361412,-0.013088831,0.02150308,0.016524648,0.03082887,-0.002804749,-0.06147076,-0.04513309,0.025382983,-0.010237335,0.031272955,-0.007607883,0.020334434,0.08423597,0.027463172,0.010769069,0.023302794,-0.03594754,0.00666128,-0.043239888,0.058198553,-0.008788215,-0.031413194,-0.04510972,0.009571208,0.023910489,0.038635425,-0.03706944,0.007467645,-0.008303227,0.004061043,0.005218003,-0.011131349,0.032698706,0.0450396,0.01994878,-0.006807361,0.045320075,0.0366721,-0.014105553,0.01698042,0.016010445,-0.013918569,0.003599429,0.007642942,0.012352584,0.029309632,-0.005460497,-0.001621496,-0.038167965,0.01866327,0.064415745,-0.02199391,-0.004087338,0.041860886,-0.06301337,-0.016571395,0.03907951,0.033446636,-0.018896999,-0.040248156,0.04204787,-0.023548208,0.030174429,-0.029309632,-0.041229818,-0.01149363,-0.06535066,-0.054365393,-0.000386749,-0.004481756,-0.030992482,-0.029987447,0.032394856,-0.05787133,-0.024424693,0.046161503,0.010698951,0.001108022,0.046278365,-0.003108597,0.019399516,0.036228012,0.05450563,-0.020626595,-0.001966246,-0.04648872,0.004364891,0.035526827,0.03162355,-0.004210046,-0.014397714,-0.008776529,-0.005454653,-0.008963511,0.028608445,0.002365047,-0.010757383,-0.03491913,0.03999105,-0.009109592,-0.019855289,0.005460497,-0.02872531,-0.005223846,-0.026551628,0.025196,-0.04382421,0.010365887,-0.013579662,0.000621939,0.017284269,0.052776035,-0.00110364,0.018289303,0.022706784,-0.017611489,0.018114006,-0.002978585,-0.040622123,-0.043193143,-0.014619757,0.017599802,0.030431531,0.012434389,-0.027486544,-0.021035621,-0.007596197,0.044852618,-0.001733978,-0.038144592,-0.007257289,-0.008501897,-0.016407784,-0.024822032,-0.017950397,-0.05530031,0.018826881,-0.050906204,0.000283214,0.0243312,0.0218303,-0.007812396,0.019037237,-0.012504508,-0.01813738,0.014619757,0.020170823,-0.019469636,0.008098714,0.013380992,-0.006725555,0.025967306,-0.00872394,-0.013977001,-0.017693294,0.031015854,-0.011680613,-0.014257477,-0.03758364,0.009290732,-0.020626595,-0.05618848,-0.06371456,0.024635049,-0.001244608,-0.032698706,-0.021047307,-0.019656619,0.027206069,0.018452914,0.03540996,0.010780755,0.03893927,0.019119043,0.000713239,0.049129862,-0.04216473,-0.02575695,-0.052542306,0.02199391,0.02176018,0.024120845,0.023781938,0.001948717,-0.00778318,-0.021888733,-0.005410829,0.004382421,-0.013252441,0.06951104,-0.010815815,-0.021421274,0.007683845,-0.030104311,0.000384557,0.06815541,-0.011534533,0.038799033,0.01236427,0.00258855,0.02793063,0.04197775,-0.030782126,0.030945735,0.044992857,-0.038074475,0.029893955,-0.027322935,0.000853842,0.00868888,-0.034942504,-0.001232191,-0.013158949,0.019703364,0.010669734,-0.009057003,-0.01998384,0.046769198,0.03290906,-0.00238988,-0.009103749,-0.017880278,-0.034217943,-0.005708834,0.012153914,-0.01833605,-0.008168832,0.008116243,-0.016594768,0.013790018,0.04471238,-0.042188108,0.010360044,-0.039126255,-0.012446076,-0.04349699,0.015870208,0.014795054,-0.002756543,0.010605459,-0.004443775,0.004084416,0.012784983,0.008098714,0.001523622,-0.008402562,0.011616337,0.04069224,0.015297571,-0.015566359,-0.000342194,0.003143657,-0.006819047,0.022134148,-0.0344283,0.003435818,0.003879903,-0.022835335,-0.029496616,-0.017073913,-0.020790204,-0.021619944,0.022730157,0.006158762,-0.01866327,0.019481322,0.021292724,0.032651957,-0.03636825,-0.014923604,-0.027206069,0.009413441,0.002814975,-0.02107068,0.022624979,0.013042085,-0.018920373,-0.006959285,0.018581465,-0.012492822,0.015916953,-0.009693915,-0.025149254,0.029356377,0.012317524,0.008285698,0.013053771,0.038308203,0.009588737,0.001379002,-0.03716293,0.014830112,0.006310687,0.021655003,-0.000722004,0.00888755,-0.002801828,0.009261517,-0.011920185,0.005767266,0.024261083,0.027720274,0.017985456,-0.002382576,0.015145647,0.019539755,-0.003654939,0.009582894,0.03706944,-0.014456146,-0.01493529,0.01352123,0.002807671,-0.002227731,0.008764842,0.022461368,-0.026691865,0.038869154,0.00666128,0.021082366,0.006684653,0.018885313,0.003213775,-0.017541371,-0.022835335,0.001915118,-0.000340368,0.023174243,-0.006456767,-0.02371182,0.004207124,0.045203213,0.003836079,-0.030221175,-0.007333251,-0.015098901,-0.039102882,-0.036531862,0.056141734,0.019119043,-0.042234853,0.07208206,0.023548208,-0.010663891,0.003123205,0.005098216,-0.028070867,0.03314279,0.000620478,0.002749239,-0.03690583,-0.017167404,-0.03987419,-0.013509544,-0.015507927,0.001880059,0.007648786,-0.008238952,0.002105023,0.030525023,-0.009039474,-0.029309632,0.020205883,0.02123429,-0.004134084,0.004043514,0.020311061,0.031670295,0.04742364,0.033516757,-0.009571208,0.005521851,-0.021210918,-0.016933674,-0.019469636,-0.00499596,0.023092438,0.011166409,-0.034662027,-0.007245603,0.03650849,0.004575247,0.027206069,0.016758379,0.04059875,-0.04284255,-0.015180706,0.019679992,0.038027726,0.012691491,0.021257663,0.02384037,0.011376765,0.031202838,0.03620464,-0.011674769,0.004502207,-0.00535824,-0.011008642,-0.034404926,-0.010798286,0.027393052,0.021409588,0.005428359,0.007718904,0.023326166,-0.009962704,0.014619757,0.030408159,-0.018873626,0.004718407,-0.020124078,0.009898428,-0.034264687,0.000901318,-0.002004227,-0.005577361,0.036298133,0.010295767,-0.00075962,-0.018067261,-0.022624979,0.013170636,-0.014900232,0.009127122,0.024541557,-0.052308578,-0.01962156,0.002807671,0.02384037,-0.017798472,0.013217382,0.044104684,0.011517002,-0.014257477,-0.018523034,0.056375463,0.027790392,0.002346056,-0.032698706,-0.017003793,0.022110775,0.03900939,-0.005907503,0.030361412,0.013474484,0.015017096,0.012282466,0.007146268,-0.03405433,0.013766645,0.052448813,-0.016045503,-0.024190964,0.003628645,0.015613105,-0.02937975,0.002661591,-0.015040469,-0.014175671,0.035924166,-0.017868591,-0.003061852,-0.025803695,0.032885686,0.021175858,0.044128057,-0.00269665,-0.003327719,-0.023431344,0.001208087,0.052215084,0.036812335,-0.018114006,-0.014058807,-0.020661654,-0.010307455,-0.00188298,-0.023665074,-0.007175484,-0.013626408,-0.022449682,0.042515326,0.05946069,-0.027206069,-0.005407908,0.038962644,0.002633835,-0.019563127,0.024775287,-0.010991112,0.013474484,-0.00256956,-0.007379997,-0.0956887,-0.000794679,-0.039406728,-0.004794369,-0.04510972,0.002376733,0.0299407,-0.024284456,0.037513524,0.006386648,-0.022613293,-0.03204426,0.00436197,0.018920373,-0.01182085,-0.013334246,-0.023150869,-0.001215391,0.013743272,0.021281036,-0.025593339,-0.008174676,0.03267533,0.040668868,-0.001634643,0.011686456,-0.011505316,-0.016185742,0.01833605,0.010365887,0.05329024,0.001805557,-0.051093187,-0.008472681,0.018032202,-0.012551254,0.006386648,-0.00046125,0.008332443,0.02447144,0.053196747,0.000377619,0.028140986,0.000861146,0.029496616,0.002420557,0.0040552,0.02704246,-0.03314279,-0.014339281,-0.023384599,0.018546406,0.029426496,0.003818549,0.054786105,-0.007309878,-0.007508548,-0.04695618,-0.028211106,-0.015624791,0.02222764,0.005118668,0.03337652,-0.03148331,-0.007473489,-0.009869212,0.019282652,-0.007029404,-0.01893206,-0.002395724,-0.01701548,-0.004540188,-0.035106115,-0.006778144,0.0200189,0.03148331,0.012586313,-0.015122274,0.011090447,-0.019925408,0.045881025,0.013451111,0.001097066,0.016115623,0.025873814,0.009921801,0.009004414,-0.005568596,0.016781751,-0.013439424,0.011417667,-0.0400378,-0.000645312,0.03204426,-0.005115746,-0.045320075,0.001844999,0.004437932,0.031576805,0.001211009,0.031202838,0.010190589,-0.030431531,-0.012633059,0.001893206,-0.0632471,0.006515199,0.014958664,-0.035503455,0.002308075,0.063106865,-0.02126935,-0.023267735,0.011873439,-0.005685461,-0.044431906,0.020813579,0.020369492,-0.001300118,-0.014958664,-0.02110574,-0.015204079,-0.013007025,-0.01833605,-0.04295941,-0.032885686,0.023162555,0.024868779,-0.021912105,-0.000273719,0.007362467,0.033119418,-0.006187979,0.025196,0.035269726,-0.009688072,0.03410108,-0.005106981,0.00123146,-0.002592932,0.005933798,0.000862607,0.01185591,0.011213155,-0.013217382,-0.012936907,-0.013532916,-0.016209114,-0.055767767,-0.033680364,0.013287501,-0.045390196,-0.016384412,0.005586126,0.034288064,0.024284456,0.006906696,0.043473616,-0.043847583,-0.005311494,0.027486544,0.02479866,0.008250638,0.00834413,0.014140612,0.013895196,0.005226768,-0.00407273,-0.029099276,-0.010821658,0.010780755,0.000571541,0.03323628,-0.004806055,0.000685119,-0.017424505,-0.021409588,0.00664375,-0.019399516,-0.014199044,-0.035363216,0.015391063,0.025476474,0.012446076,0.008244795,-0.01576503,-0.013100517,-0.011616337,0.014222417,-0.015940325,0.008548643,-0.002680581,0.035690438,0.022064028,0.005729285,-0.023337852,-0.008700566,0.027626783,-0.000170275,-0.002524274,0.017260896,0.04099609,0.024564931,-0.004303537,0.011084603,0.016863557,0.07441935,-0.014724935,-0.008051968,0.02568683,-0.037233047,-0.000921039,-0.046862688,-0.010289924,0.017810158,-0.014374341,-0.007263132,0.012270778,-0.021643316,0.005533537,-0.03096911,-0.074092135,-0.033189535,0.0436606,0.031249583,0.002337291,-0.026317898,0.029566733,-0.03272208,0.029262885,0.012177288,-0.014199044,-0.005521851,-0.012352584,0.008063654,0.019960467,-0.00141187,0.028935665,0.00687748,0.004297694,0.008928453,-0.02528949,0.028140986,0.013626408,-0.015227452,-0.028000748,0.008560329,-0.004993038,-0.005705912,-0.023898803,-0.0276969,0.001742743,0.01223572,0.049690813,-0.002150308,-0.007087836,0.03449842,-0.04422155,0.015391063,-0.021748494,-0.03185728,0.011552062,-0.024494812,-0.005746815,-0.008127931,-0.011312489,-0.009127122,0.016501276,0.028491579,0.017553058,0.005980544,0.011429354,-0.0236417,-0.055019837,0.015788402,-0.026551628,-0.006112017,-0.025032388,0.035900794,-0.027346307,0.013906883,-0.010564556,-0.01033667,0.013556289,0.06193822,-0.00591919,0.033119418,0.001690154,-0.02729956,0.039056137,-0.003383229,0.019644933,-0.029987447,-0.001007957,0.01493529,-0.03393747,0.009997763,0.040809106,0.019995525,0.023489777,0.01757643,-0.003473799,0.01998384,0.018359423,0.021362841,-0.01685187,0.001630261,-0.041837513,-0.024354575,0.00664375,0.01129496,0.024681795,0.001660938,0.019212535,0.018347736,0.02090707,-0.029099276,0.014689875,0.007870828,-0.029660225,-0.009226457,-0.015496241,0.020836951,0.037607014,-0.004061043,-0.022005597,0.022239326,0.011850067,-0.004882017,0.011382608,-0.038728915,-0.018768448,-0.010143844,0.026317898,0.03861205,0.047143165,-0.000446642,0.015402749,0.015648164,-0.021023935,-0.018850254,-0.01348617,-0.002794524,0.013205695,-0.028140986,-0.021140799,-0.008782372,-0.036251385,0.002286163,-0.0162208,0.06137727,-0.004297694,-0.04461889,0.03650849,0.013334246,-0.005527694,-0.011300803,-0.020778518,-0.036485117,-0.003570212,-0.032207873,0.04471238,0.001558681,-0.001102909,-0.014315909,-0.015075528,-0.010395102,-0.018254245,-0.006556102,0.009460187,0.033680364,0.021514766,-0.000248337,-0.006865793,-0.011154722,-0.034965876,0.032885686,-0.018651584,0.001570368,4.9576138e-05,-0.012703178,0.021386215,-0.002604619,-0.004557718,-0.004975508,0.03837832,0.030034192,0.001052511,0.012539567,0.002644061,0.003540996,-0.007929261,-0.004645366,0.019025551,0.025079135,-0.00184646,-0.015204079,0.018978804,-0.016325979,-0.01256294,0.03258184,-0.002940605,0.003777647,-0.009057003,0.005349475,0.016898615,-0.03650849,0.003941258,-0.020498045,-0.023781938,-0.027626783,0.032651957,-0.03538659,0.016957048,-0.005063157,-0.007397527,0.01817244,0.010845032,0.005197551,-0.024424693,-0.006865793,0.013626408,0.012773297,0.027065832,-0.009384224,0.010973582,-0.009711445,-0.001733978,0.002221888,0.04501623,-0.025102507,-0.023571583,0.013030399,0.027720274,0.000480971,-0.011768261,-0.010693108,-0.000176119,0.005656245,-0.007578667,0.004312303,0.018452914,0.006065271,-0.003088146,0.010097098,0.016898615,0.013451111,-0.007432586,0.013462798,0.006941755,-0.004700877,-0.014152299,-0.017880278,0.004370735,-0.004332753,0.027135951,0.034965876,0.012446076,-0.006719712,-0.009635483,-0.006170449,0.014561324,0.000797601,-0.017202463,0.042515326,0.031109346,0.004142849,-0.01879182,-0.004321067,0.010622988,0.006556102,-0.007923417,0.007905887,0.00445254,0.022636665,0.020731773,0.020533103,-0.015274198,0.007935104,0.033727113,-0.013007025,-0.02271847,-0.007216387,0.015239139,0.023852056,0.013077145,0.009764034,-0.0319274,-0.023069065,0.023630014,-0.008583702,-0.016150683,-0.02344303,-0.02107068,-0.014584697,-0.027252816,0.01109629,-0.012048736,0.00073223,0.002550569,0.005048549,0.027509918,-0.016244173,0.005697148,0.01925928,0.024448067,-0.013860137,0.032792196,-0.018511346,-0.0218303,-0.015753342,-0.017588116,-0.014467833,0.029333005,-0.00445254,0.012598,-0.006684653,0.01576503,0.009734818,-0.03136645,-0.0470263,-0.016641513,0.008087028,-0.007987693,-0.042398464,-0.003839001,-0.004040592,0.001272363,-0.014993724,-0.011791634,0.010646362,-0.001112405,0.025055762,-0.018020514,-0.017027166,0.007876671,0.038799033,-0.007479332,-0.012492822,-0.0225198,0.017436193,-0.039827444,0.030852243,0.051654134,0.000296909,0.039196372,0.032301366,-0.030127684,0.007940947,-0.02298726,-0.017038852,0.004172065,0.05081271,0.03405433,-0.002150308,0.019504694,-0.000157585,-0.005930876,-0.028514953,0.006000995,0.002838348,-0.025827067,-0.007327408,-0.003102754,-0.01276161,0.027229443,-0.007794866,0.003009263,-0.026271153,0.017950397,0.030291295,-0.009366695,0.004876174,-0.032067634,0.008361659,0.002093337,-0.035059366,0.019843603,0.002838348,0.03851856,-0.025710203,-0.031436566,0.004025984,0.006164606,0.011990304,0.00231684,0.015566359,-0.005971779,0.023746878,0.013801704,-0.015613105,-0.011668926,-0.014818426,-0.016010445,-0.020427926,-0.015087214,-0.008227265,0.012095482,-0.035106115,-0.004382421,-0.004829428,0.016384412,0.006602848,-0.021362841,-0.028398087,0.03363362,-0.01592864,-0.029099276,-0.025780322,0.021047307,-0.020790204,-0.050859455,0.010430162,0.001861068,0.021047307,0.009483559,0.012282466,-0.046348486,-0.028608445,-0.013965315,-0.019831916,0.045366824,0.009799093,-0.011429354,-0.018347736,0.029286258,-0.00135782,-0.001745664,0.00685995,0.00981078,0.042328343,-0.02898241,-0.020135764,-0.030151056,0.027416427,0.005536459,0.009138809,-0.013112203,-0.003400759,-0.008858333,-0.031600177,-0.010348357,-0.025967306,0.006690496,0.005673775,-0.005872444,-0.025476474,-0.010301611,0.01681681,-0.01088009,0.006725555,-0.028491579,0.007742277,0.017891964,0.003754274,-0.005378692,0.001599584,0.013439424,0.013556289,-0.022239326,0.004627836,-0.030291295,0.039173,0.001191288,0.020860324,0.010453535,-0.007958476,-0.00943097,-0.021678375,-0.01589358,-0.010769069,-0.013229068,0.001169376,-0.025336236,0.045810908,-0.008221421,-0.023630014,0.020252628,0.02664512,-0.023010632,0.012492822,0.008519426,-0.000351142,-0.014479519,-0.006561945,0.008075342,-0.007461802,0.004563561,-0.011353392,-0.008151303,-0.02624778,0.011049544,0.01661814,-0.016723318,0.001177411,0.002563716,0.034568537,0.013766645,0.029192768,-0.03730317,-2.74e-05,0.015063842,-0.01493529,0.007239759,0.001533847,0.002972742,0.016933674,-0.006170449,0.02143296,0.021877045,-0.003275129,-0.009074533,-0.014900232,0.039757323,-0.03893927,-0.011926028,0.009004414,-0.031810533,0.02921614,0.06348083,-0.046254992,-0.014350968,0.029987447,-0.006374962,0.013731586,0.000449198,-0.015227452,0.005124511,0.02291714,0.010862561,0.004788525,0.026037425,-0.008636291,-0.022823649,0.010845032,-0.026434764,-0.005589047,0.047517132,0.018125692
